digraph Tree {
node [shape=box, fontname="helvetica"] ;
edge [fontname="helvetica"] ;
0 [label="x[9] <= 47.995\nsquared_error = 21.058\nsamples = 7990\nvalue = 46.324"] ;
1 [label="x[9] <= 40.075\nsquared_error = 10.493\nsamples = 5739\nvalue = 44.169"] ;
0 -> 1 [labeldistance=2.5, labelangle=45, headlabel="True"] ;
2 [label="x[7] <= 35.075\nsquared_error = 7.81\nsamples = 481\nvalue = 35.181"] ;
1 -> 2 ;
3 [label="x[8] <= 32.78\nsquared_error = 1.928\nsamples = 239\nvalue = 32.745"] ;
2 -> 3 ;
4 [label="x[8] <= 31.545\nsquared_error = 0.542\nsamples = 126\nvalue = 31.607"] ;
3 -> 4 ;
5 [label="squared_error = 0.125\nsamples = 63\nvalue = 30.963"] ;
4 -> 5 ;
6 [label="squared_error = 0.129\nsamples = 63\nvalue = 32.251"] ;
4 -> 6 ;
7 [label="x[3] <= 33.66\nsquared_error = 0.418\nsamples = 113\nvalue = 34.015"] ;
3 -> 7 ;
8 [label="squared_error = 0.076\nsamples = 49\nvalue = 33.377"] ;
7 -> 8 ;
9 [label="squared_error = 0.13\nsamples = 64\nvalue = 34.503"] ;
7 -> 9 ;
10 [label="x[9] <= 37.675\nsquared_error = 1.976\nsamples = 242\nvalue = 37.586"] ;
2 -> 10 ;
11 [label="x[8] <= 36.395\nsquared_error = 0.557\nsamples = 128\nvalue = 36.438"] ;
10 -> 11 ;
12 [label="squared_error = 0.132\nsamples = 65\nvalue = 35.795"] ;
11 -> 12 ;
13 [label="squared_error = 0.129\nsamples = 63\nvalue = 37.101"] ;
11 -> 13 ;
14 [label="x[3] <= 38.51\nsquared_error = 0.427\nsamples = 114\nvalue = 38.875"] ;
10 -> 14 ;
15 [label="squared_error = 0.076\nsamples = 49\nvalue = 38.227"] ;
14 -> 15 ;
16 [label="squared_error = 0.135\nsamples = 65\nvalue = 39.364"] ;
14 -> 16 ;
17 [label="x[9] <= 45.195\nsquared_error = 2.672\nsamples = 5258\nvalue = 44.991"] ;
1 -> 17 ;
18 [label="x[9] <= 42.985\nsquared_error = 0.704\nsamples = 2995\nvalue = 43.748"] ;
17 -> 18 ;
19 [label="x[9] <= 41.845\nsquared_error = 0.499\nsamples = 422\nvalue = 41.924"] ;
18 -> 19 ;
20 [label="squared_error = 0.259\nsamples = 182\nvalue = 41.273"] ;
19 -> 20 ;
21 [label="squared_error = 0.117\nsamples = 240\nvalue = 42.418"] ;
19 -> 21 ;
22 [label="x[9] <= 44.365\nsquared_error = 0.102\nsamples = 2573\nvalue = 44.047"] ;
18 -> 22 ;
23 [label="squared_error = 0.03\nsamples = 2279\nvalue = 43.953"] ;
22 -> 23 ;
24 [label="squared_error = 0.058\nsamples = 294\nvalue = 44.779"] ;
22 -> 24 ;
25 [label="x[9] <= 46.605\nsquared_error = 0.529\nsamples = 2263\nvalue = 46.636"] ;
17 -> 25 ;
26 [label="x[9] <= 45.895\nsquared_error = 0.135\nsamples = 1082\nvalue = 45.966"] ;
25 -> 26 ;
27 [label="squared_error = 0.036\nsamples = 423\nvalue = 45.57"] ;
26 -> 27 ;
28 [label="squared_error = 0.033\nsamples = 659\nvalue = 46.221"] ;
26 -> 28 ;
29 [label="x[9] <= 47.395\nsquared_error = 0.102\nsamples = 1181\nvalue = 47.249"] ;
25 -> 29 ;
30 [label="squared_error = 0.041\nsamples = 888\nvalue = 47.103"] ;
29 -> 30 ;
31 [label="squared_error = 0.028\nsamples = 293\nvalue = 47.691"] ;
29 -> 31 ;
32 [label="x[9] <= 51.715\nsquared_error = 5.966\nsamples = 2251\nvalue = 51.818"] ;
0 -> 32 [labeldistance=2.5, labelangle=-45, headlabel="False"] ;
33 [label="x[9] <= 49.575\nsquared_error = 0.965\nsamples = 1071\nvalue = 49.501"] ;
32 -> 33 ;
34 [label="x[9] <= 48.755\nsquared_error = 0.221\nsamples = 584\nvalue = 48.748"] ;
33 -> 34 ;
35 [label="x[9] <= 48.355\nsquared_error = 0.051\nsamples = 297\nvalue = 48.344"] ;
34 -> 35 ;
36 [label="squared_error = 0.01\nsamples = 158\nvalue = 48.158"] ;
35 -> 36 ;
37 [label="squared_error = 0.013\nsamples = 139\nvalue = 48.557"] ;
35 -> 37 ;
38 [label="x[9] <= 49.165\nsquared_error = 0.055\nsamples = 287\nvalue = 49.165"] ;
34 -> 38 ;
39 [label="squared_error = 0.013\nsamples = 143\nvalue = 48.959"] ;
38 -> 39 ;
40 [label="squared_error = 0.013\nsamples = 144\nvalue = 49.369"] ;
38 -> 40 ;
41 [label="x[9] <= 50.595\nsquared_error = 0.36\nsamples = 487\nvalue = 50.404"] ;
33 -> 41 ;
42 [label="x[9] <= 50.005\nsquared_error = 0.068\nsamples = 326\nvalue = 50.03"] ;
41 -> 42 ;
43 [label="squared_error = 0.015\nsamples = 144\nvalue = 49.788"] ;
42 -> 43 ;
44 [label="squared_error = 0.027\nsamples = 182\nvalue = 50.222"] ;
42 -> 44 ;
45 [label="x[9] <= 51.165\nsquared_error = 0.096\nsamples = 161\nvalue = 51.161"] ;
41 -> 45 ;
46 [label="squared_error = 0.024\nsamples = 82\nvalue = 50.895"] ;
45 -> 46 ;
47 [label="squared_error = 0.021\nsamples = 79\nvalue = 51.436"] ;
45 -> 47 ;
48 [label="x[9] <= 53.895\nsquared_error = 1.207\nsamples = 1180\nvalue = 53.921"] ;
32 -> 48 ;
49 [label="x[9] <= 52.905\nsquared_error = 0.339\nsamples = 572\nvalue = 52.915"] ;
48 -> 49 ;
50 [label="x[9] <= 52.315\nsquared_error = 0.11\nsamples = 282\nvalue = 52.411"] ;
49 -> 50 ;
51 [label="squared_error = 0.034\nsamples = 95\nvalue = 52.019"] ;
50 -> 51 ;
52 [label="squared_error = 0.031\nsamples = 187\nvalue = 52.611"] ;
50 -> 52 ;
53 [label="x[9] <= 53.405\nsquared_error = 0.076\nsamples = 290\nvalue = 53.404"] ;
49 -> 53 ;
54 [label="squared_error = 0.018\nsamples = 146\nvalue = 53.164"] ;
53 -> 54 ;
55 [label="squared_error = 0.017\nsamples = 144\nvalue = 53.648"] ;
53 -> 55 ;
56 [label="x[9] <= 54.665\nsquared_error = 0.172\nsamples = 608\nvalue = 54.869"] ;
48 -> 56 ;
57 [label="x[9] <= 54.285\nsquared_error = 0.053\nsamples = 162\nvalue = 54.225"] ;
56 -> 57 ;
58 [label="squared_error = 0.009\nsamples = 103\nvalue = 54.068"] ;
57 -> 58 ;
59 [label="squared_error = 0.012\nsamples = 59\nvalue = 54.498"] ;
57 -> 59 ;
60 [label="x[9] <= 54.975\nsquared_error = 0.01\nsamples = 446\nvalue = 55.103"] ;
56 -> 60 ;
61 [label="squared_error = 0.008\nsamples = 38\nvalue = 54.822"] ;
60 -> 61 ;
62 [label="squared_error = 0.002\nsamples = 408\nvalue = 55.129"] ;
60 -> 62 ;
}
