digraph Tree {
node [shape=box, fontname="helvetica"] ;
edge [fontname="helvetica"] ;
0 [label="x[1501] <= 1.5\nsquared_error = 211.091\nsamples = 13390\nvalue = 38.394"] ;
1 [label="x[50] <= 147.042\nsquared_error = 243.173\nsamples = 7388\nvalue = 33.517"] ;
0 -> 1 [labeldistance=2.5, labelangle=45, headlabel="True"] ;
2 [label="x[1501] <= 0.5\nsquared_error = 241.784\nsamples = 7234\nvalue = 33.173"] ;
1 -> 2 ;
3 [label="x[1503] <= -8.232\nsquared_error = 274.116\nsamples = 3983\nvalue = 31.565"] ;
2 -> 3 ;
4 [label="x[287] <= 123.968\nsquared_error = 297.891\nsamples = 131\nvalue = 34.988"] ;
3 -> 4 ;
5 [label="x[1503] <= -8.577\nsquared_error = 236.825\nsamples = 19\nvalue = 26.302"] ;
4 -> 5 ;
6 [label="x[1503] <= -15.163\nsquared_error = 194.579\nsamples = 18\nvalue = 24.594"] ;
5 -> 6 ;
7 [label="x[1503] <= -18.997\nsquared_error = 266.987\nsamples = 5\nvalue = 33.807"] ;
6 -> 7 ;
8 [label="x[899] <= 121.506\nsquared_error = 1.945\nsamples = 2\nvalue = 17.962"] ;
7 -> 8 ;
9 [label="squared_error = 0.0\nsamples = 1\nvalue = 16.568"] ;
8 -> 9 ;
10 [label="squared_error = -0.0\nsamples = 1\nvalue = 19.357"] ;
8 -> 10 ;
11 [label="x[110] <= 122.518\nsquared_error = 164.734\nsamples = 3\nvalue = 44.37"] ;
7 -> 11 ;
12 [label="x[537] <= 121.31\nsquared_error = 42.17\nsamples = 2\nvalue = 52.635"] ;
11 -> 12 ;
13 [label="squared_error = 0.0\nsamples = 1\nvalue = 46.141"] ;
12 -> 13 ;
14 [label="squared_error = 0.0\nsamples = 1\nvalue = 59.129"] ;
12 -> 14 ;
15 [label="squared_error = -0.0\nsamples = 1\nvalue = 27.84"] ;
11 -> 15 ;
16 [label="x[1503] <= -10.717\nsquared_error = 121.529\nsamples = 13\nvalue = 21.051"] ;
6 -> 16 ;
17 [label="x[726] <= 121.282\nsquared_error = 14.564\nsamples = 4\nvalue = 15.019"] ;
16 -> 17 ;
18 [label="x[856] <= 120.295\nsquared_error = 0.701\nsamples = 2\nvalue = 18.782"] ;
17 -> 18 ;
19 [label="squared_error = 0.0\nsamples = 1\nvalue = 17.945"] ;
18 -> 19 ;
20 [label="squared_error = 0.0\nsamples = 1\nvalue = 19.619"] ;
18 -> 20 ;
21 [label="x[687] <= 122.511\nsquared_error = 0.103\nsamples = 2\nvalue = 11.256"] ;
17 -> 21 ;
22 [label="squared_error = 0.0\nsamples = 1\nvalue = 10.935"] ;
21 -> 22 ;
23 [label="squared_error = 0.0\nsamples = 1\nvalue = 11.577"] ;
21 -> 23 ;
24 [label="x[1503] <= -9.106\nsquared_error = 145.714\nsamples = 9\nvalue = 23.731"] ;
16 -> 24 ;
25 [label="x[1241] <= 120.629\nsquared_error = 113.712\nsamples = 7\nvalue = 26.948"] ;
24 -> 25 ;
26 [label="squared_error = 0.0\nsamples = 1\nvalue = 10.791"] ;
25 -> 26 ;
27 [label="x[1503] <= -9.133\nsquared_error = 81.903\nsamples = 6\nvalue = 29.641"] ;
25 -> 27 ;
28 [label="x[1503] <= -9.514\nsquared_error = 72.197\nsamples = 5\nvalue = 27.556"] ;
27 -> 28 ;
29 [label="x[1503] <= -9.548\nsquared_error = 76.971\nsamples = 3\nvalue = 31.508"] ;
28 -> 29 ;
30 [label="x[80] <= 122.129\nsquared_error = 0.39\nsamples = 2\nvalue = 25.314"] ;
29 -> 30 ;
31 [label="squared_error = 0.0\nsamples = 1\nvalue = 25.939"] ;
30 -> 31 ;
32 [label="squared_error = -0.0\nsamples = 1\nvalue = 24.69"] ;
30 -> 32 ;
33 [label="squared_error = 0.0\nsamples = 1\nvalue = 43.894"] ;
29 -> 33 ;
34 [label="x[1503] <= -9.328\nsquared_error = 6.468\nsamples = 2\nvalue = 21.628"] ;
28 -> 34 ;
35 [label="squared_error = 0.0\nsamples = 1\nvalue = 24.171"] ;
34 -> 35 ;
36 [label="squared_error = 0.0\nsamples = 1\nvalue = 19.084"] ;
34 -> 36 ;
37 [label="squared_error = -0.0\nsamples = 1\nvalue = 40.066"] ;
27 -> 37 ;
38 [label="x[1144] <= 122.883\nsquared_error = 94.78\nsamples = 2\nvalue = 12.474"] ;
24 -> 38 ;
39 [label="squared_error = 0.0\nsamples = 1\nvalue = 22.209"] ;
38 -> 39 ;
40 [label="squared_error = 0.0\nsamples = 1\nvalue = 2.738"] ;
38 -> 40 ;
41 [label="squared_error = -0.0\nsamples = 1\nvalue = 57.039"] ;
5 -> 41 ;
42 [label="x[1410] <= 138.161\nsquared_error = 293.281\nsamples = 112\nvalue = 36.461"] ;
4 -> 42 ;
43 [label="x[1503] <= -10.991\nsquared_error = 244.532\nsamples = 74\nvalue = 38.76"] ;
42 -> 43 ;
44 [label="x[1503] <= -12.987\nsquared_error = 180.919\nsamples = 34\nvalue = 41.993"] ;
43 -> 44 ;
45 [label="x[1503] <= -14.232\nsquared_error = 190.921\nsamples = 17\nvalue = 38.312"] ;
44 -> 45 ;
46 [label="x[269] <= 126.002\nsquared_error = 118.748\nsamples = 13\nvalue = 41.92"] ;
45 -> 46 ;
47 [label="squared_error = 0.0\nsamples = 1\nvalue = 19.432"] ;
46 -> 47 ;
48 [label="x[1095] <= 135.972\nsquared_error = 82.99\nsamples = 12\nvalue = 43.794"] ;
46 -> 48 ;
49 [label="x[1084] <= 126.335\nsquared_error = 62.994\nsamples = 11\nvalue = 45.309"] ;
48 -> 49 ;
50 [label="squared_error = 0.0\nsamples = 1\nvalue = 58.925"] ;
49 -> 50 ;
51 [label="x[345] <= 128.879\nsquared_error = 48.898\nsamples = 10\nvalue = 43.947"] ;
49 -> 51 ;
52 [label="x[758] <= 127.069\nsquared_error = 21.337\nsamples = 3\nvalue = 37.951"] ;
51 -> 52 ;
53 [label="squared_error = 0.0\nsamples = 1\nvalue = 32.484"] ;
52 -> 53 ;
54 [label="x[83] <= 127.862\nsquared_error = 9.586\nsamples = 2\nvalue = 40.685"] ;
52 -> 54 ;
55 [label="squared_error = 0.0\nsamples = 1\nvalue = 43.781"] ;
54 -> 55 ;
56 [label="squared_error = 0.0\nsamples = 1\nvalue = 37.589"] ;
54 -> 56 ;
57 [label="x[1503] <= -14.689\nsquared_error = 38.697\nsamples = 7\nvalue = 46.517"] ;
51 -> 57 ;
58 [label="x[1503] <= -22.224\nsquared_error = 26.675\nsamples = 4\nvalue = 49.498"] ;
57 -> 58 ;
59 [label="squared_error = 0.0\nsamples = 1\nvalue = 41.128"] ;
58 -> 59 ;
60 [label="x[344] <= 133.359\nsquared_error = 4.431\nsamples = 3\nvalue = 52.288"] ;
58 -> 60 ;
61 [label="x[502] <= 130.689\nsquared_error = 4.193\nsamples = 2\nvalue = 53.193"] ;
60 -> 61 ;
62 [label="squared_error = 0.0\nsamples = 1\nvalue = 51.145"] ;
61 -> 62 ;
63 [label="squared_error = 0.0\nsamples = 1\nvalue = 55.24"] ;
61 -> 63 ;
64 [label="squared_error = -0.0\nsamples = 1\nvalue = 50.48"] ;
60 -> 64 ;
65 [label="x[1503] <= -14.587\nsquared_error = 27.073\nsamples = 3\nvalue = 42.542"] ;
57 -> 65 ;
66 [label="squared_error = 0.0\nsamples = 1\nvalue = 36.045"] ;
65 -> 66 ;
67 [label="x[1460] <= 130.766\nsquared_error = 8.95\nsamples = 2\nvalue = 45.79"] ;
65 -> 67 ;
68 [label="squared_error = 0.0\nsamples = 1\nvalue = 42.799"] ;
67 -> 68 ;
69 [label="squared_error = 0.0\nsamples = 1\nvalue = 48.782"] ;
67 -> 69 ;
70 [label="squared_error = 0.0\nsamples = 1\nvalue = 27.129"] ;
48 -> 70 ;
71 [label="x[629] <= 130.538\nsquared_error = 245.714\nsamples = 4\nvalue = 26.588"] ;
45 -> 71 ;
72 [label="x[604] <= 126.843\nsquared_error = 85.18\nsamples = 3\nvalue = 34.373"] ;
71 -> 72 ;
73 [label="x[735] <= 126.261\nsquared_error = 56.28\nsamples = 2\nvalue = 39.254"] ;
72 -> 73 ;
74 [label="squared_error = 0.0\nsamples = 1\nvalue = 31.752"] ;
73 -> 74 ;
75 [label="squared_error = -0.0\nsamples = 1\nvalue = 46.756"] ;
73 -> 75 ;
76 [label="squared_error = 0.0\nsamples = 1\nvalue = 24.61"] ;
72 -> 76 ;
77 [label="squared_error = -0.0\nsamples = 1\nvalue = 3.232"] ;
71 -> 77 ;
78 [label="x[1503] <= -12.096\nsquared_error = 143.816\nsamples = 17\nvalue = 45.675"] ;
44 -> 78 ;
79 [label="x[591] <= 126.86\nsquared_error = 55.46\nsamples = 8\nvalue = 50.622"] ;
78 -> 79 ;
80 [label="x[1473] <= 125.643\nsquared_error = 6.033\nsamples = 2\nvalue = 56.311"] ;
79 -> 80 ;
81 [label="squared_error = 0.0\nsamples = 1\nvalue = 58.767"] ;
80 -> 81 ;
82 [label="squared_error = -0.0\nsamples = 1\nvalue = 53.855"] ;
80 -> 82 ;
83 [label="x[557] <= 128.226\nsquared_error = 57.551\nsamples = 6\nvalue = 48.726"] ;
79 -> 83 ;
84 [label="squared_error = 0.0\nsamples = 1\nvalue = 35.631"] ;
83 -> 84 ;
85 [label="x[1503] <= -12.319\nsquared_error = 27.91\nsamples = 5\nvalue = 51.344"] ;
83 -> 85 ;
86 [label="x[1503] <= -12.671\nsquared_error = 1.757\nsamples = 3\nvalue = 54.337"] ;
85 -> 86 ;
87 [label="squared_error = 0.0\nsamples = 1\nvalue = 56.157"] ;
86 -> 87 ;
88 [label="x[215] <= 132.22\nsquared_error = 0.151\nsamples = 2\nvalue = 53.427"] ;
86 -> 88 ;
89 [label="squared_error = 0.0\nsamples = 1\nvalue = 53.038"] ;
88 -> 89 ;
90 [label="squared_error = 0.0\nsamples = 1\nvalue = 53.816"] ;
88 -> 90 ;
91 [label="x[1189] <= 133.103\nsquared_error = 33.555\nsamples = 2\nvalue = 46.855"] ;
85 -> 91 ;
92 [label="squared_error = 0.0\nsamples = 1\nvalue = 41.063"] ;
91 -> 92 ;
93 [label="squared_error = -0.0\nsamples = 1\nvalue = 52.648"] ;
91 -> 93 ;
94 [label="x[1503] <= -11.444\nsquared_error = 181.259\nsamples = 9\nvalue = 41.277"] ;
78 -> 94 ;
95 [label="x[1503] <= -11.559\nsquared_error = 245.872\nsamples = 4\nvalue = 34.552"] ;
94 -> 95 ;
96 [label="x[1503] <= -12.004\nsquared_error = 78.048\nsamples = 3\nvalue = 42.454"] ;
95 -> 96 ;
97 [label="squared_error = 0.0\nsamples = 1\nvalue = 30.775"] ;
96 -> 97 ;
98 [label="x[1230] <= 128.997\nsquared_error = 14.769\nsamples = 2\nvalue = 48.294"] ;
96 -> 98 ;
99 [label="squared_error = 0.0\nsamples = 1\nvalue = 44.451"] ;
98 -> 99 ;
100 [label="squared_error = 0.0\nsamples = 1\nvalue = 52.137"] ;
98 -> 100 ;
101 [label="squared_error = -0.0\nsamples = 1\nvalue = 10.845"] ;
95 -> 101 ;
102 [label="x[1401] <= 135.577\nsquared_error = 64.441\nsamples = 5\nvalue = 46.657"] ;
94 -> 102 ;
103 [label="x[1127] <= 131.279\nsquared_error = 38.827\nsamples = 4\nvalue = 43.768"] ;
102 -> 103 ;
104 [label="x[1452] <= 127.594\nsquared_error = 14.858\nsamples = 2\nvalue = 47.505"] ;
103 -> 104 ;
105 [label="squared_error = 0.0\nsamples = 1\nvalue = 43.65"] ;
104 -> 105 ;
106 [label="squared_error = 0.0\nsamples = 1\nvalue = 51.359"] ;
104 -> 106 ;
107 [label="x[749] <= 134.345\nsquared_error = 34.874\nsamples = 2\nvalue = 40.032"] ;
103 -> 107 ;
108 [label="squared_error = 0.0\nsamples = 1\nvalue = 34.126"] ;
107 -> 108 ;
109 [label="squared_error = 0.0\nsamples = 1\nvalue = 45.937"] ;
107 -> 109 ;
110 [label="squared_error = 0.0\nsamples = 1\nvalue = 58.212"] ;
102 -> 110 ;
111 [label="x[1503] <= -10.538\nsquared_error = 282.16\nsamples = 40\nvalue = 36.011"] ;
43 -> 111 ;
112 [label="x[117] <= 133.55\nsquared_error = 150.28\nsamples = 10\nvalue = 28.769"] ;
111 -> 112 ;
113 [label="x[14] <= 130.038\nsquared_error = 91.509\nsamples = 8\nvalue = 33.144"] ;
112 -> 113 ;
114 [label="x[861] <= 125.062\nsquared_error = 44.647\nsamples = 5\nvalue = 28.84"] ;
113 -> 114 ;
115 [label="squared_error = 0.0\nsamples = 1\nvalue = 41.053"] ;
114 -> 115 ;
116 [label="x[314] <= 128.315\nsquared_error = 9.203\nsamples = 4\nvalue = 25.787"] ;
114 -> 116 ;
117 [label="x[836] <= 126.62\nsquared_error = 3.139\nsamples = 2\nvalue = 28.54"] ;
116 -> 117 ;
118 [label="squared_error = 0.0\nsamples = 1\nvalue = 26.768"] ;
117 -> 118 ;
119 [label="squared_error = 0.0\nsamples = 1\nvalue = 30.311"] ;
117 -> 119 ;
120 [label="x[1248] <= 129.437\nsquared_error = 0.116\nsamples = 2\nvalue = 23.035"] ;
116 -> 120 ;
121 [label="squared_error = 0.0\nsamples = 1\nvalue = 23.376"] ;
120 -> 121 ;
122 [label="squared_error = 0.0\nsamples = 1\nvalue = 22.694"] ;
120 -> 122 ;
123 [label="x[1371] <= 131.688\nsquared_error = 87.291\nsamples = 3\nvalue = 40.317"] ;
113 -> 123 ;
124 [label="x[792] <= 130.621\nsquared_error = 0.206\nsamples = 2\nvalue = 46.919"] ;
123 -> 124 ;
125 [label="squared_error = 0.0\nsamples = 1\nvalue = 47.373"] ;
124 -> 125 ;
126 [label="squared_error = 0.0\nsamples = 1\nvalue = 46.464"] ;
124 -> 126 ;
127 [label="squared_error = -0.0\nsamples = 1\nvalue = 27.115"] ;
123 -> 127 ;
128 [label="x[883] <= 135.606\nsquared_error = 2.506\nsamples = 2\nvalue = 11.268"] ;
112 -> 128 ;
129 [label="squared_error = 0.0\nsamples = 1\nvalue = 12.851"] ;
128 -> 129 ;
130 [label="squared_error = -0.0\nsamples = 1\nvalue = 9.685"] ;
128 -> 130 ;
131 [label="x[1394] <= 127.322\nsquared_error = 302.81\nsamples = 30\nvalue = 38.425"] ;
111 -> 131 ;
132 [label="x[272] <= 124.308\nsquared_error = 259.125\nsamples = 11\nvalue = 31.441"] ;
131 -> 132 ;
133 [label="x[76] <= 124.071\nsquared_error = 79.762\nsamples = 3\nvalue = 44.716"] ;
132 -> 133 ;
134 [label="squared_error = 0.0\nsamples = 1\nvalue = 32.666"] ;
133 -> 134 ;
135 [label="x[160] <= 124.169\nsquared_error = 10.735\nsamples = 2\nvalue = 50.742"] ;
133 -> 135 ;
136 [label="squared_error = 0.0\nsamples = 1\nvalue = 47.465"] ;
135 -> 136 ;
137 [label="squared_error = 0.0\nsamples = 1\nvalue = 54.018"] ;
135 -> 137 ;
138 [label="x[1503] <= -8.554\nsquared_error = 235.513\nsamples = 8\nvalue = 26.463"] ;
132 -> 138 ;
139 [label="x[1503] <= -10.121\nsquared_error = 181.4\nsamples = 6\nvalue = 21.956"] ;
138 -> 139 ;
140 [label="x[463] <= 125.688\nsquared_error = 39.969\nsamples = 2\nvalue = 39.886"] ;
139 -> 140 ;
141 [label="squared_error = 0.0\nsamples = 1\nvalue = 33.564"] ;
140 -> 141 ;
142 [label="squared_error = 0.0\nsamples = 1\nvalue = 46.209"] ;
140 -> 142 ;
143 [label="x[226] <= 126.312\nsquared_error = 10.979\nsamples = 4\nvalue = 12.99"] ;
139 -> 143 ;
144 [label="x[1067] <= 125.145\nsquared_error = 4.838\nsamples = 3\nvalue = 11.425"] ;
143 -> 144 ;
145 [label="x[1357] <= 124.847\nsquared_error = 1.086\nsamples = 2\nvalue = 12.859"] ;
144 -> 145 ;
146 [label="squared_error = 0.0\nsamples = 1\nvalue = 11.817"] ;
145 -> 146 ;
147 [label="squared_error = -0.0\nsamples = 1\nvalue = 13.901"] ;
145 -> 147 ;
148 [label="squared_error = -0.0\nsamples = 1\nvalue = 8.557"] ;
144 -> 148 ;
149 [label="squared_error = 0.0\nsamples = 1\nvalue = 17.686"] ;
143 -> 149 ;
150 [label="x[300] <= 125.679\nsquared_error = 154.1\nsamples = 2\nvalue = 39.983"] ;
138 -> 150 ;
151 [label="squared_error = 0.0\nsamples = 1\nvalue = 52.397"] ;
150 -> 151 ;
152 [label="squared_error = -0.0\nsamples = 1\nvalue = 27.57"] ;
150 -> 152 ;
153 [label="x[1292] <= 130.405\nsquared_error = 283.509\nsamples = 19\nvalue = 42.469"] ;
131 -> 153 ;
154 [label="x[1503] <= -8.748\nsquared_error = 40.445\nsamples = 6\nvalue = 50.323"] ;
153 -> 154 ;
155 [label="x[1503] <= -9.795\nsquared_error = 17.907\nsamples = 4\nvalue = 46.559"] ;
154 -> 155 ;
156 [label="squared_error = 0.0\nsamples = 1\nvalue = 53.242"] ;
155 -> 156 ;
157 [label="x[1503] <= -8.851\nsquared_error = 4.029\nsamples = 3\nvalue = 44.332"] ;
155 -> 157 ;
158 [label="x[725] <= 128.904\nsquared_error = 0.001\nsamples = 2\nvalue = 45.751"] ;
157 -> 158 ;
159 [label="squared_error = 0.0\nsamples = 1\nvalue = 45.715"] ;
158 -> 159 ;
160 [label="squared_error = -0.0\nsamples = 1\nvalue = 45.787"] ;
158 -> 160 ;
161 [label="squared_error = -0.0\nsamples = 1\nvalue = 41.494"] ;
157 -> 161 ;
162 [label="x[16] <= 128.556\nsquared_error = 0.537\nsamples = 2\nvalue = 57.85"] ;
154 -> 162 ;
163 [label="squared_error = 0.0\nsamples = 1\nvalue = 58.582"] ;
162 -> 163 ;
164 [label="squared_error = 0.0\nsamples = 1\nvalue = 57.117"] ;
162 -> 164 ;
165 [label="x[527] <= 131.052\nsquared_error = 354.081\nsamples = 13\nvalue = 38.844"] ;
153 -> 165 ;
166 [label="squared_error = 0.0\nsamples = 1\nvalue = 6.531"] ;
165 -> 166 ;
167 [label="x[1503] <= -8.988\nsquared_error = 289.324\nsamples = 12\nvalue = 41.537"] ;
165 -> 167 ;
168 [label="x[1333] <= 137.258\nsquared_error = 40.387\nsamples = 7\nvalue = 51.432"] ;
167 -> 168 ;
169 [label="x[1503] <= -10.243\nsquared_error = 27.731\nsamples = 6\nvalue = 53.096"] ;
168 -> 169 ;
170 [label="squared_error = 0.0\nsamples = 1\nvalue = 42.639"] ;
169 -> 170 ;
171 [label="x[281] <= 132.994\nsquared_error = 7.034\nsamples = 5\nvalue = 55.188"] ;
169 -> 171 ;
172 [label="squared_error = 0.0\nsamples = 1\nvalue = 50.757"] ;
171 -> 172 ;
173 [label="x[960] <= 134.666\nsquared_error = 2.657\nsamples = 4\nvalue = 56.295"] ;
171 -> 173 ;
174 [label="squared_error = 0.0\nsamples = 1\nvalue = 54.937"] ;
173 -> 174 ;
175 [label="x[1503] <= -9.819\nsquared_error = 2.722\nsamples = 3\nvalue = 56.748"] ;
173 -> 175 ;
176 [label="squared_error = 0.0\nsamples = 1\nvalue = 54.976"] ;
175 -> 176 ;
177 [label="x[536] <= 135.596\nsquared_error = 1.726\nsamples = 2\nvalue = 57.634"] ;
175 -> 177 ;
178 [label="squared_error = 0.0\nsamples = 1\nvalue = 56.321"] ;
177 -> 178 ;
179 [label="squared_error = 0.0\nsamples = 1\nvalue = 58.948"] ;
177 -> 179 ;
180 [label="squared_error = 0.0\nsamples = 1\nvalue = 41.447"] ;
168 -> 180 ;
181 [label="x[983] <= 134.415\nsquared_error = 308.83\nsamples = 5\nvalue = 27.683"] ;
167 -> 181 ;
182 [label="x[108] <= 133.983\nsquared_error = 65.222\nsamples = 2\nvalue = 47.573"] ;
181 -> 182 ;
183 [label="squared_error = 0.0\nsamples = 1\nvalue = 55.649"] ;
182 -> 183 ;
184 [label="squared_error = -0.0\nsamples = 1\nvalue = 39.497"] ;
182 -> 184 ;
185 [label="x[217] <= 136.23\nsquared_error = 31.671\nsamples = 3\nvalue = 14.423"] ;
181 -> 185 ;
186 [label="x[1503] <= -8.803\nsquared_error = 8.611\nsamples = 2\nvalue = 10.822"] ;
185 -> 186 ;
187 [label="squared_error = 0.0\nsamples = 1\nvalue = 7.888"] ;
186 -> 187 ;
188 [label="squared_error = 0.0\nsamples = 1\nvalue = 13.757"] ;
186 -> 188 ;
189 [label="squared_error = -0.0\nsamples = 1\nvalue = 21.625"] ;
185 -> 189 ;
190 [label="x[1277] <= 142.27\nsquared_error = 357.884\nsamples = 38\nvalue = 31.985"] ;
42 -> 190 ;
191 [label="x[1503] <= -10.741\nsquared_error = 316.416\nsamples = 21\nvalue = 26.494"] ;
190 -> 191 ;
192 [label="x[349] <= 141.719\nsquared_error = 238.956\nsamples = 11\nvalue = 18.979"] ;
191 -> 192 ;
193 [label="x[1503] <= -10.861\nsquared_error = 243.336\nsamples = 9\nvalue = 21.912"] ;
192 -> 193 ;
194 [label="x[1503] <= -11.242\nsquared_error = 221.197\nsamples = 8\nvalue = 24.329"] ;
193 -> 194 ;
195 [label="x[418] <= 138.505\nsquared_error = 168.125\nsamples = 7\nvalue = 21.075"] ;
194 -> 195 ;
196 [label="squared_error = 0.0\nsamples = 1\nvalue = 5.429"] ;
195 -> 196 ;
197 [label="x[1503] <= -14.638\nsquared_error = 148.545\nsamples = 6\nvalue = 23.683"] ;
195 -> 197 ;
198 [label="x[1196] <= 139.044\nsquared_error = 50.288\nsamples = 2\nvalue = 39.264"] ;
197 -> 198 ;
199 [label="squared_error = 0.0\nsamples = 1\nvalue = 32.172"] ;
198 -> 199 ;
200 [label="squared_error = 0.0\nsamples = 1\nvalue = 46.355"] ;
198 -> 200 ;
201 [label="x[1503] <= -12.401\nsquared_error = 15.608\nsamples = 4\nvalue = 15.893"] ;
197 -> 201 ;
202 [label="x[582] <= 141.281\nsquared_error = 0.617\nsamples = 3\nvalue = 18.14"] ;
201 -> 202 ;
203 [label="x[1203] <= 139.838\nsquared_error = 0.227\nsamples = 2\nvalue = 17.657"] ;
202 -> 203 ;
204 [label="squared_error = 0.0\nsamples = 1\nvalue = 17.18"] ;
203 -> 204 ;
205 [label="squared_error = -0.0\nsamples = 1\nvalue = 18.133"] ;
203 -> 205 ;
206 [label="squared_error = -0.0\nsamples = 1\nvalue = 19.105"] ;
202 -> 206 ;
207 [label="squared_error = 0.0\nsamples = 1\nvalue = 9.152"] ;
201 -> 207 ;
208 [label="squared_error = 0.0\nsamples = 1\nvalue = 47.102"] ;
194 -> 208 ;
209 [label="squared_error = 0.0\nsamples = 1\nvalue = 2.58"] ;
193 -> 209 ;
210 [label="x[1319] <= 142.059\nsquared_error = 6.343\nsamples = 2\nvalue = 5.781"] ;
192 -> 210 ;
211 [label="squared_error = 0.0\nsamples = 1\nvalue = 8.3"] ;
210 -> 211 ;
212 [label="squared_error = -0.0\nsamples = 1\nvalue = 3.262"] ;
210 -> 212 ;
213 [label="x[789] <= 140.77\nsquared_error = 271.184\nsamples = 10\nvalue = 34.759"] ;
191 -> 213 ;
214 [label="x[623] <= 139.424\nsquared_error = 218.322\nsamples = 8\nvalue = 30.042"] ;
213 -> 214 ;
215 [label="x[1030] <= 138.491\nsquared_error = 128.437\nsamples = 3\nvalue = 22.477"] ;
214 -> 215 ;
216 [label="squared_error = 0.0\nsamples = 1\nvalue = 36.848"] ;
215 -> 216 ;
217 [label="x[10] <= 138.905\nsquared_error = 37.774\nsamples = 2\nvalue = 15.292"] ;
215 -> 217 ;
218 [label="squared_error = 0.0\nsamples = 1\nvalue = 21.438"] ;
217 -> 218 ;
219 [label="squared_error = 0.0\nsamples = 1\nvalue = 9.146"] ;
217 -> 219 ;
220 [label="x[1198] <= 139.847\nsquared_error = 217.316\nsamples = 5\nvalue = 34.581"] ;
214 -> 220 ;
221 [label="x[977] <= 139.658\nsquared_error = 52.72\nsamples = 2\nvalue = 50.294"] ;
220 -> 221 ;
222 [label="squared_error = 0.0\nsamples = 1\nvalue = 57.554"] ;
221 -> 222 ;
223 [label="squared_error = -0.0\nsamples = 1\nvalue = 43.033"] ;
221 -> 223 ;
224 [label="x[1176] <= 140.653\nsquared_error = 52.735\nsamples = 3\nvalue = 24.106"] ;
220 -> 224 ;
225 [label="x[321] <= 140.235\nsquared_error = 12.266\nsamples = 2\nvalue = 28.826"] ;
224 -> 225 ;
226 [label="squared_error = 0.0\nsamples = 1\nvalue = 32.329"] ;
225 -> 226 ;
227 [label="squared_error = 0.0\nsamples = 1\nvalue = 25.324"] ;
225 -> 227 ;
228 [label="squared_error = -0.0\nsamples = 1\nvalue = 14.666"] ;
224 -> 228 ;
229 [label="x[460] <= 141.295\nsquared_error = 37.594\nsamples = 2\nvalue = 53.628"] ;
213 -> 229 ;
230 [label="squared_error = 0.0\nsamples = 1\nvalue = 59.76"] ;
229 -> 230 ;
231 [label="squared_error = -0.0\nsamples = 1\nvalue = 47.497"] ;
229 -> 231 ;
232 [label="x[860] <= 143.937\nsquared_error = 325.858\nsamples = 17\nvalue = 38.767"] ;
190 -> 232 ;
233 [label="x[1503] <= -14.702\nsquared_error = 244.794\nsamples = 13\nvalue = 43.332"] ;
232 -> 233 ;
234 [label="x[226] <= 142.464\nsquared_error = 263.778\nsamples = 4\nvalue = 29.468"] ;
233 -> 234 ;
235 [label="squared_error = 0.0\nsamples = 1\nvalue = 53.186"] ;
234 -> 235 ;
236 [label="x[1503] <= -17.338\nsquared_error = 101.698\nsamples = 3\nvalue = 21.562"] ;
234 -> 236 ;
237 [label="x[1035] <= 143.141\nsquared_error = 3.773\nsamples = 2\nvalue = 28.604"] ;
236 -> 237 ;
238 [label="squared_error = 0.0\nsamples = 1\nvalue = 30.547"] ;
237 -> 238 ;
239 [label="squared_error = -0.0\nsamples = 1\nvalue = 26.662"] ;
237 -> 239 ;
240 [label="squared_error = 0.0\nsamples = 1\nvalue = 7.478"] ;
236 -> 240 ;
241 [label="x[1198] <= 142.819\nsquared_error = 112.973\nsamples = 9\nvalue = 49.493"] ;
233 -> 241 ;
242 [label="x[109] <= 142.665\nsquared_error = 2.835\nsamples = 3\nvalue = 57.695"] ;
241 -> 242 ;
243 [label="x[1488] <= 142.494\nsquared_error = 0.623\nsamples = 2\nvalue = 56.595"] ;
242 -> 243 ;
244 [label="squared_error = 0.0\nsamples = 1\nvalue = 57.384"] ;
243 -> 244 ;
245 [label="squared_error = 0.0\nsamples = 1\nvalue = 55.806"] ;
243 -> 245 ;
246 [label="squared_error = 0.0\nsamples = 1\nvalue = 59.895"] ;
242 -> 246 ;
247 [label="x[155] <= 143.159\nsquared_error = 117.585\nsamples = 6\nvalue = 45.392"] ;
241 -> 247 ;
248 [label="squared_error = 0.0\nsamples = 1\nvalue = 22.523"] ;
247 -> 248 ;
249 [label="x[1503] <= -9.593\nsquared_error = 15.588\nsamples = 5\nvalue = 49.966"] ;
247 -> 249 ;
250 [label="x[923] <= 143.595\nsquared_error = 0.737\nsamples = 3\nvalue = 46.956"] ;
249 -> 250 ;
251 [label="x[529] <= 143.358\nsquared_error = 0.319\nsamples = 2\nvalue = 46.444"] ;
250 -> 251 ;
252 [label="squared_error = 0.0\nsamples = 1\nvalue = 47.008"] ;
251 -> 252 ;
253 [label="squared_error = -0.0\nsamples = 1\nvalue = 45.879"] ;
251 -> 253 ;
254 [label="squared_error = 0.0\nsamples = 1\nvalue = 47.98"] ;
250 -> 254 ;
255 [label="x[577] <= 143.771\nsquared_error = 3.89\nsamples = 2\nvalue = 54.481"] ;
249 -> 255 ;
256 [label="squared_error = 0.0\nsamples = 1\nvalue = 52.508"] ;
255 -> 256 ;
257 [label="squared_error = 0.0\nsamples = 1\nvalue = 56.453"] ;
255 -> 257 ;
258 [label="x[1305] <= 144.092\nsquared_error = 301.583\nsamples = 4\nvalue = 23.934"] ;
232 -> 258 ;
259 [label="squared_error = 0.0\nsamples = 1\nvalue = 4.757"] ;
258 -> 259 ;
260 [label="x[947] <= 144.505\nsquared_error = 238.667\nsamples = 3\nvalue = 30.326"] ;
258 -> 260 ;
261 [label="x[472] <= 144.351\nsquared_error = 175.735\nsamples = 2\nvalue = 38.121"] ;
260 -> 261 ;
262 [label="squared_error = 0.0\nsamples = 1\nvalue = 24.864"] ;
261 -> 262 ;
263 [label="squared_error = -0.0\nsamples = 1\nvalue = 51.377"] ;
261 -> 263 ;
264 [label="squared_error = 0.0\nsamples = 1\nvalue = 14.737"] ;
260 -> 264 ;
265 [label="x[121] <= 126.02\nsquared_error = 272.896\nsamples = 3852\nvalue = 31.449"] ;
3 -> 265 ;
266 [label="x[520] <= 125.675\nsquared_error = 286.194\nsamples = 894\nvalue = 32.684"] ;
265 -> 266 ;
267 [label="x[1401] <= 125.589\nsquared_error = 287.477\nsamples = 848\nvalue = 32.411"] ;
266 -> 267 ;
268 [label="x[1503] <= 8.831\nsquared_error = 286.381\nsamples = 831\nvalue = 32.613"] ;
267 -> 268 ;
269 [label="x[1070] <= 120.191\nsquared_error = 288.486\nsamples = 365\nvalue = 34.031"] ;
268 -> 269 ;
270 [label="x[1503] <= 5.207\nsquared_error = 166.034\nsamples = 11\nvalue = 47.88"] ;
269 -> 270 ;
271 [label="x[1503] <= 2.285\nsquared_error = 8.563\nsamples = 6\nvalue = 55.416"] ;
270 -> 271 ;
272 [label="x[1503] <= -5.576\nsquared_error = 1.713\nsamples = 4\nvalue = 57.209"] ;
271 -> 272 ;
273 [label="squared_error = 0.0\nsamples = 1\nvalue = 59.322"] ;
272 -> 273 ;
274 [label="x[1063] <= 120.064\nsquared_error = 0.299\nsamples = 3\nvalue = 56.504"] ;
272 -> 274 ;
275 [label="squared_error = 0.0\nsamples = 1\nvalue = 55.775"] ;
274 -> 275 ;
276 [label="x[673] <= 120.133\nsquared_error = 0.05\nsamples = 2\nvalue = 56.868"] ;
274 -> 276 ;
277 [label="squared_error = 0.0\nsamples = 1\nvalue = 56.644"] ;
276 -> 277 ;
278 [label="squared_error = 0.0\nsamples = 1\nvalue = 57.092"] ;
276 -> 278 ;
279 [label="x[162] <= 120.021\nsquared_error = 2.991\nsamples = 2\nvalue = 51.832"] ;
271 -> 279 ;
280 [label="squared_error = 0.0\nsamples = 1\nvalue = 53.561"] ;
279 -> 280 ;
281 [label="squared_error = 0.0\nsamples = 1\nvalue = 50.102"] ;
279 -> 281 ;
282 [label="x[1503] <= 8.152\nsquared_error = 205.051\nsamples = 5\nvalue = 38.836"] ;
270 -> 282 ;
283 [label="x[1503] <= 7.943\nsquared_error = 29.807\nsamples = 3\nvalue = 27.781"] ;
282 -> 283 ;
284 [label="x[1396] <= 120.095\nsquared_error = 7.46\nsamples = 2\nvalue = 24.257"] ;
283 -> 284 ;
285 [label="squared_error = 0.0\nsamples = 1\nvalue = 21.526"] ;
284 -> 285 ;
286 [label="squared_error = 0.0\nsamples = 1\nvalue = 26.989"] ;
284 -> 286 ;
287 [label="squared_error = 0.0\nsamples = 1\nvalue = 34.828"] ;
283 -> 287 ;
288 [label="x[240] <= 120.118\nsquared_error = 9.605\nsamples = 2\nvalue = 55.419"] ;
282 -> 288 ;
289 [label="squared_error = 0.0\nsamples = 1\nvalue = 52.32"] ;
288 -> 289 ;
290 [label="squared_error = 0.0\nsamples = 1\nvalue = 58.518"] ;
288 -> 290 ;
291 [label="x[1503] <= 8.441\nsquared_error = 286.146\nsamples = 354\nvalue = 33.6"] ;
269 -> 291 ;
292 [label="x[1503] <= 8.403\nsquared_error = 286.787\nsamples = 344\nvalue = 33.254"] ;
291 -> 292 ;
293 [label="x[1503] <= 8.374\nsquared_error = 285.747\nsamples = 342\nvalue = 33.38"] ;
292 -> 293 ;
294 [label="x[1503] <= 2.816\nsquared_error = 283.754\nsamples = 340\nvalue = 33.233"] ;
293 -> 294 ;
295 [label="x[412] <= 123.456\nsquared_error = 298.485\nsamples = 164\nvalue = 31.634"] ;
294 -> 295 ;
296 [label="x[1503] <= 2.748\nsquared_error = 308.998\nsamples = 99\nvalue = 34.092"] ;
295 -> 296 ;
297 [label="x[1112] <= 121.256\nsquared_error = 303.344\nsamples = 98\nvalue = 34.39"] ;
296 -> 297 ;
298 [label="x[489] <= 120.462\nsquared_error = 350.58\nsamples = 29\nvalue = 29.874"] ;
297 -> 298 ;
299 [label="x[1503] <= 1.368\nsquared_error = 276.473\nsamples = 7\nvalue = 43.967"] ;
298 -> 299 ;
300 [label="x[1503] <= -4.544\nsquared_error = 134.02\nsamples = 6\nvalue = 49.156"] ;
299 -> 300 ;
301 [label="squared_error = 0.0\nsamples = 1\nvalue = 29.201"] ;
300 -> 301 ;
302 [label="x[1331] <= 120.36\nsquared_error = 65.251\nsamples = 5\nvalue = 53.147"] ;
300 -> 302 ;
303 [label="x[931] <= 120.304\nsquared_error = 36.309\nsamples = 2\nvalue = 44.436"] ;
302 -> 303 ;
304 [label="squared_error = 0.0\nsamples = 1\nvalue = 50.461"] ;
303 -> 304 ;
305 [label="squared_error = -0.0\nsamples = 1\nvalue = 38.41"] ;
303 -> 305 ;
306 [label="x[1503] <= -1.059\nsquared_error = 0.218\nsamples = 3\nvalue = 58.955"] ;
302 -> 306 ;
307 [label="x[425] <= 120.411\nsquared_error = 0.004\nsamples = 2\nvalue = 59.283"] ;
306 -> 307 ;
308 [label="squared_error = 0.0\nsamples = 1\nvalue = 59.221"] ;
307 -> 308 ;
309 [label="squared_error = 0.0\nsamples = 1\nvalue = 59.346"] ;
307 -> 309 ;
310 [label="squared_error = 0.0\nsamples = 1\nvalue = 58.299"] ;
306 -> 310 ;
311 [label="squared_error = 0.0\nsamples = 1\nvalue = 12.828"] ;
299 -> 311 ;
312 [label="x[478] <= 120.526\nsquared_error = 290.862\nsamples = 22\nvalue = 25.39"] ;
298 -> 312 ;
313 [label="x[393] <= 120.49\nsquared_error = 27.588\nsamples = 2\nvalue = 8.05"] ;
312 -> 313 ;
314 [label="squared_error = 0.0\nsamples = 1\nvalue = 13.303"] ;
313 -> 314 ;
315 [label="squared_error = 0.0\nsamples = 1\nvalue = 2.798"] ;
313 -> 315 ;
316 [label="x[1099] <= 121.03\nsquared_error = 284.116\nsamples = 20\nvalue = 27.124"] ;
312 -> 316 ;
317 [label="x[743] <= 121.008\nsquared_error = 274.395\nsamples = 15\nvalue = 30.133"] ;
316 -> 317 ;
318 [label="x[1503] <= -5.454\nsquared_error = 243.516\nsamples = 14\nvalue = 28.299"] ;
317 -> 318 ;
319 [label="squared_error = 0.0\nsamples = 1\nvalue = 7.446"] ;
318 -> 319 ;
320 [label="x[1503] <= -4.546\nsquared_error = 226.224\nsamples = 13\nvalue = 29.903"] ;
318 -> 320 ;
321 [label="squared_error = 0.0\nsamples = 1\nvalue = 59.953"] ;
320 -> 321 ;
322 [label="x[1345] <= 120.621\nsquared_error = 163.553\nsamples = 12\nvalue = 27.399"] ;
320 -> 322 ;
323 [label="squared_error = 0.0\nsamples = 1\nvalue = 48.012"] ;
322 -> 323 ;
324 [label="x[1503] <= 1.789\nsquared_error = 136.281\nsamples = 11\nvalue = 25.525"] ;
322 -> 324 ;
325 [label="x[1503] <= -2.267\nsquared_error = 126.882\nsamples = 8\nvalue = 28.513"] ;
324 -> 325 ;
326 [label="x[163] <= 120.801\nsquared_error = 138.851\nsamples = 2\nvalue = 15.471"] ;
325 -> 326 ;
327 [label="squared_error = 0.0\nsamples = 1\nvalue = 27.255"] ;
326 -> 327 ;
328 [label="squared_error = -0.0\nsamples = 1\nvalue = 3.687"] ;
326 -> 328 ;
329 [label="x[798] <= 120.714\nsquared_error = 47.295\nsamples = 6\nvalue = 32.86"] ;
325 -> 329 ;
330 [label="squared_error = 0.0\nsamples = 1\nvalue = 20.973"] ;
329 -> 330 ;
331 [label="x[1065] <= 120.768\nsquared_error = 22.841\nsamples = 5\nvalue = 35.238"] ;
329 -> 331 ;
332 [label="squared_error = 0.0\nsamples = 1\nvalue = 42.869"] ;
331 -> 332 ;
333 [label="x[1503] <= 1.553\nsquared_error = 10.352\nsamples = 4\nvalue = 33.33"] ;
331 -> 333 ;
334 [label="x[570] <= 120.965\nsquared_error = 7.901\nsamples = 3\nvalue = 34.544"] ;
333 -> 334 ;
335 [label="x[225] <= 120.875\nsquared_error = 0.772\nsamples = 2\nvalue = 36.466"] ;
334 -> 335 ;
336 [label="squared_error = 0.0\nsamples = 1\nvalue = 35.588"] ;
335 -> 336 ;
337 [label="squared_error = 0.0\nsamples = 1\nvalue = 37.345"] ;
335 -> 337 ;
338 [label="squared_error = -0.0\nsamples = 1\nvalue = 30.701"] ;
334 -> 338 ;
339 [label="squared_error = 0.0\nsamples = 1\nvalue = 29.686"] ;
333 -> 339 ;
340 [label="x[754] <= 120.739\nsquared_error = 74.047\nsamples = 3\nvalue = 17.557"] ;
324 -> 340 ;
341 [label="squared_error = 0.0\nsamples = 1\nvalue = 5.597"] ;
340 -> 341 ;
342 [label="x[267] <= 120.745\nsquared_error = 3.795\nsamples = 2\nvalue = 23.537"] ;
340 -> 342 ;
343 [label="squared_error = 0.0\nsamples = 1\nvalue = 21.589"] ;
342 -> 343 ;
344 [label="squared_error = 0.0\nsamples = 1\nvalue = 25.485"] ;
342 -> 344 ;
345 [label="squared_error = 0.0\nsamples = 1\nvalue = 55.816"] ;
317 -> 345 ;
346 [label="x[1503] <= -3.428\nsquared_error = 204.589\nsamples = 5\nvalue = 18.095"] ;
316 -> 346 ;
347 [label="x[672] <= 121.135\nsquared_error = 295.077\nsamples = 2\nvalue = 29.114"] ;
346 -> 347 ;
348 [label="squared_error = 0.0\nsamples = 1\nvalue = 11.936"] ;
347 -> 348 ;
349 [label="squared_error = 0.0\nsamples = 1\nvalue = 46.292"] ;
347 -> 349 ;
350 [label="x[1503] <= 0.922\nsquared_error = 9.352\nsamples = 3\nvalue = 10.749"] ;
346 -> 350 ;
351 [label="x[1154] <= 121.139\nsquared_error = 2.643\nsamples = 2\nvalue = 8.801"] ;
350 -> 351 ;
352 [label="squared_error = 0.0\nsamples = 1\nvalue = 10.427"] ;
351 -> 352 ;
353 [label="squared_error = 0.0\nsamples = 1\nvalue = 7.175"] ;
351 -> 353 ;
354 [label="squared_error = 0.0\nsamples = 1\nvalue = 14.645"] ;
350 -> 354 ;
355 [label="x[1503] <= 1.102\nsquared_error = 271.314\nsamples = 69\nvalue = 36.289"] ;
297 -> 355 ;
356 [label="x[21] <= 121.392\nsquared_error = 291.719\nsamples = 58\nvalue = 34.819"] ;
355 -> 356 ;
357 [label="x[107] <= 121.31\nsquared_error = 12.4\nsamples = 2\nvalue = 54.821"] ;
356 -> 357 ;
358 [label="squared_error = 0.0\nsamples = 1\nvalue = 51.299"] ;
357 -> 358 ;
359 [label="squared_error = 0.0\nsamples = 1\nvalue = 58.342"] ;
357 -> 359 ;
360 [label="x[1330] <= 121.433\nsquared_error = 286.897\nsamples = 56\nvalue = 34.105"] ;
356 -> 360 ;
361 [label="squared_error = 0.0\nsamples = 1\nvalue = 7.761"] ;
360 -> 361 ;
362 [label="x[1503] <= -6.327\nsquared_error = 279.266\nsamples = 55\nvalue = 34.584"] ;
360 -> 362 ;
363 [label="x[337] <= 121.759\nsquared_error = 169.268\nsamples = 6\nvalue = 43.28"] ;
362 -> 363 ;
364 [label="squared_error = 0.0\nsamples = 1\nvalue = 19.744"] ;
363 -> 364 ;
365 [label="x[153] <= 123.327\nsquared_error = 70.176\nsamples = 5\nvalue = 47.987"] ;
363 -> 365 ;
366 [label="x[206] <= 123.177\nsquared_error = 69.601\nsamples = 4\nvalue = 46.083"] ;
365 -> 366 ;
367 [label="x[569] <= 122.679\nsquared_error = 40.401\nsamples = 3\nvalue = 49.702"] ;
366 -> 367 ;
368 [label="x[478] <= 122.116\nsquared_error = 42.971\nsamples = 2\nvalue = 47.278"] ;
367 -> 368 ;
369 [label="squared_error = 0.0\nsamples = 1\nvalue = 53.833"] ;
368 -> 369 ;
370 [label="squared_error = -0.0\nsamples = 1\nvalue = 40.723"] ;
368 -> 370 ;
371 [label="squared_error = 0.0\nsamples = 1\nvalue = 54.551"] ;
367 -> 371 ;
372 [label="squared_error = 0.0\nsamples = 1\nvalue = 35.225"] ;
366 -> 372 ;
373 [label="squared_error = -0.0\nsamples = 1\nvalue = 55.601"] ;
365 -> 373 ;
374 [label="x[1503] <= -4.396\nsquared_error = 282.343\nsamples = 49\nvalue = 33.519"] ;
362 -> 374 ;
375 [label="x[1503] <= -5.347\nsquared_error = 82.035\nsamples = 6\nvalue = 17.67"] ;
374 -> 375 ;
376 [label="x[392] <= 122.295\nsquared_error = 28.845\nsamples = 3\nvalue = 11.193"] ;
375 -> 376 ;
377 [label="squared_error = 0.0\nsamples = 1\nvalue = 18.708"] ;
376 -> 377 ;
378 [label="x[327] <= 122.608\nsquared_error = 0.909\nsamples = 2\nvalue = 7.435"] ;
376 -> 378 ;
379 [label="squared_error = 0.0\nsamples = 1\nvalue = 6.482"] ;
378 -> 379 ;
380 [label="squared_error = 0.0\nsamples = 1\nvalue = 8.389"] ;
378 -> 380 ;
381 [label="x[247] <= 122.685\nsquared_error = 51.316\nsamples = 3\nvalue = 24.147"] ;
375 -> 381 ;
382 [label="squared_error = 0.0\nsamples = 1\nvalue = 33.1"] ;
381 -> 382 ;
383 [label="x[203] <= 123.15\nsquared_error = 16.859\nsamples = 2\nvalue = 19.671"] ;
381 -> 383 ;
384 [label="squared_error = 0.0\nsamples = 1\nvalue = 15.565"] ;
383 -> 384 ;
385 [label="squared_error = 0.0\nsamples = 1\nvalue = 23.777"] ;
383 -> 385 ;
386 [label="x[1503] <= -2.919\nsquared_error = 270.35\nsamples = 43\nvalue = 35.731"] ;
374 -> 386 ;
387 [label="x[1503] <= -3.332\nsquared_error = 41.646\nsamples = 6\nvalue = 50.082"] ;
386 -> 387 ;
388 [label="x[1037] <= 122.506\nsquared_error = 25.547\nsamples = 4\nvalue = 46.646"] ;
387 -> 388 ;
389 [label="x[626] <= 121.874\nsquared_error = 9.024\nsamples = 2\nvalue = 50.942"] ;
388 -> 389 ;
390 [label="squared_error = 0.0\nsamples = 1\nvalue = 47.939"] ;
389 -> 390 ;
391 [label="squared_error = -0.0\nsamples = 1\nvalue = 53.946"] ;
389 -> 391 ;
392 [label="x[445] <= 123.141\nsquared_error = 5.147\nsamples = 2\nvalue = 42.349"] ;
388 -> 392 ;
393 [label="squared_error = 0.0\nsamples = 1\nvalue = 44.618"] ;
392 -> 393 ;
394 [label="squared_error = 0.0\nsamples = 1\nvalue = 40.08"] ;
392 -> 394 ;
395 [label="x[997] <= 122.88\nsquared_error = 2.99\nsamples = 2\nvalue = 56.955"] ;
387 -> 395 ;
396 [label="squared_error = 0.0\nsamples = 1\nvalue = 58.684"] ;
395 -> 396 ;
397 [label="squared_error = -0.0\nsamples = 1\nvalue = 55.226"] ;
395 -> 397 ;
398 [label="x[1503] <= 0.091\nsquared_error = 268.622\nsamples = 37\nvalue = 33.404"] ;
386 -> 398 ;
399 [label="x[1503] <= -0.146\nsquared_error = 290.784\nsamples = 26\nvalue = 30.459"] ;
398 -> 399 ;
400 [label="x[1503] <= -1.573\nsquared_error = 262.422\nsamples = 23\nvalue = 33.119"] ;
399 -> 400 ;
401 [label="x[808] <= 122.017\nsquared_error = 221.481\nsamples = 9\nvalue = 26.507"] ;
400 -> 401 ;
402 [label="x[1239] <= 121.727\nsquared_error = 203.903\nsamples = 3\nvalue = 14.577"] ;
401 -> 402 ;
403 [label="squared_error = 0.0\nsamples = 1\nvalue = 34.685"] ;
402 -> 403 ;
404 [label="x[213] <= 121.905\nsquared_error = 2.625\nsamples = 2\nvalue = 4.524"] ;
402 -> 404 ;
405 [label="squared_error = 0.0\nsamples = 1\nvalue = 2.903"] ;
404 -> 405 ;
406 [label="squared_error = -0.0\nsamples = 1\nvalue = 6.144"] ;
404 -> 406 ;
407 [label="x[1503] <= -2.738\nsquared_error = 123.528\nsamples = 6\nvalue = 32.472"] ;
401 -> 407 ;
408 [label="squared_error = 0.0\nsamples = 1\nvalue = 12.013"] ;
407 -> 408 ;
409 [label="x[1503] <= -2.52\nsquared_error = 47.771\nsamples = 5\nvalue = 36.564"] ;
407 -> 409 ;
410 [label="x[1455] <= 122.824\nsquared_error = 17.792\nsamples = 2\nvalue = 43.914"] ;
409 -> 410 ;
411 [label="squared_error = 0.0\nsamples = 1\nvalue = 48.132"] ;
410 -> 411 ;
412 [label="squared_error = -0.0\nsamples = 1\nvalue = 39.696"] ;
410 -> 412 ;
413 [label="x[769] <= 122.104\nsquared_error = 7.733\nsamples = 3\nvalue = 31.664"] ;
409 -> 413 ;
414 [label="squared_error = 0.0\nsamples = 1\nvalue = 35.344"] ;
413 -> 414 ;
415 [label="x[186] <= 122.789\nsquared_error = 1.445\nsamples = 2\nvalue = 29.824"] ;
413 -> 415 ;
416 [label="squared_error = 0.0\nsamples = 1\nvalue = 31.026"] ;
415 -> 416 ;
417 [label="squared_error = 0.0\nsamples = 1\nvalue = 28.622"] ;
415 -> 417 ;
418 [label="x[1503] <= -1.293\nsquared_error = 242.568\nsamples = 14\nvalue = 37.37"] ;
400 -> 418 ;
419 [label="x[1503] <= -1.36\nsquared_error = 7.305\nsamples = 4\nvalue = 52.058"] ;
418 -> 419 ;
420 [label="x[999] <= 122.477\nsquared_error = 0.125\nsamples = 2\nvalue = 54.746"] ;
419 -> 420 ;
421 [label="squared_error = 0.0\nsamples = 1\nvalue = 55.1"] ;
420 -> 421 ;
422 [label="squared_error = 0.0\nsamples = 1\nvalue = 54.393"] ;
420 -> 422 ;
423 [label="x[1362] <= 122.424\nsquared_error = 0.038\nsamples = 2\nvalue = 49.371"] ;
419 -> 423 ;
424 [label="squared_error = 0.0\nsamples = 1\nvalue = 49.176"] ;
423 -> 424 ;
425 [label="squared_error = 0.0\nsamples = 1\nvalue = 49.565"] ;
423 -> 425 ;
426 [label="x[288] <= 122.992\nsquared_error = 215.852\nsamples = 10\nvalue = 31.494"] ;
418 -> 426 ;
427 [label="x[1503] <= -1.143\nsquared_error = 169.475\nsamples = 9\nvalue = 34.147"] ;
426 -> 427 ;
428 [label="x[122] <= 122.049\nsquared_error = 146.912\nsamples = 2\nvalue = 21.891"] ;
427 -> 428 ;
429 [label="squared_error = 0.0\nsamples = 1\nvalue = 34.012"] ;
428 -> 429 ;
430 [label="squared_error = 0.0\nsamples = 1\nvalue = 9.77"] ;
428 -> 430 ;
431 [label="x[1207] <= 122.335\nsquared_error = 120.741\nsamples = 7\nvalue = 37.649"] ;
427 -> 431 ;
432 [label="x[500] <= 122.085\nsquared_error = 159.432\nsamples = 4\nvalue = 33.434"] ;
431 -> 432 ;
433 [label="x[1201] <= 121.804\nsquared_error = 71.645\nsamples = 3\nvalue = 39.37"] ;
432 -> 433 ;
434 [label="x[191] <= 121.69\nsquared_error = 54.073\nsamples = 2\nvalue = 35.151"] ;
433 -> 434 ;
435 [label="squared_error = 0.0\nsamples = 1\nvalue = 42.505"] ;
434 -> 435 ;
436 [label="squared_error = 0.0\nsamples = 1\nvalue = 27.798"] ;
434 -> 436 ;
437 [label="squared_error = 0.0\nsamples = 1\nvalue = 47.808"] ;
433 -> 437 ;
438 [label="squared_error = -0.0\nsamples = 1\nvalue = 15.627"] ;
432 -> 438 ;
439 [label="x[158] <= 122.442\nsquared_error = 13.897\nsamples = 3\nvalue = 43.268"] ;
431 -> 439 ;
440 [label="squared_error = 0.0\nsamples = 1\nvalue = 48.132"] ;
439 -> 440 ;
441 [label="x[956] <= 122.575\nsquared_error = 3.098\nsamples = 2\nvalue = 40.836"] ;
439 -> 441 ;
442 [label="squared_error = 0.0\nsamples = 1\nvalue = 39.076"] ;
441 -> 442 ;
443 [label="squared_error = 0.0\nsamples = 1\nvalue = 42.596"] ;
441 -> 443 ;
444 [label="squared_error = 0.0\nsamples = 1\nvalue = 7.621"] ;
426 -> 444 ;
445 [label="x[236] <= 122.245\nsquared_error = 37.945\nsamples = 3\nvalue = 10.062"] ;
399 -> 445 ;
446 [label="squared_error = 0.0\nsamples = 1\nvalue = 17.781"] ;
445 -> 446 ;
447 [label="x[107] <= 122.669\nsquared_error = 12.228\nsamples = 2\nvalue = 6.203"] ;
445 -> 447 ;
448 [label="squared_error = 0.0\nsamples = 1\nvalue = 9.7"] ;
447 -> 448 ;
449 [label="squared_error = -0.0\nsamples = 1\nvalue = 2.706"] ;
447 -> 449 ;
450 [label="x[165] <= 122.43\nsquared_error = 147.296\nsamples = 11\nvalue = 40.364"] ;
398 -> 450 ;
451 [label="x[1010] <= 121.708\nsquared_error = 61.892\nsamples = 5\nvalue = 50.11"] ;
450 -> 451 ;
452 [label="squared_error = 0.0\nsamples = 1\nvalue = 35.213"] ;
451 -> 452 ;
453 [label="x[1331] <= 122.203\nsquared_error = 8.013\nsamples = 4\nvalue = 53.834"] ;
451 -> 453 ;
454 [label="x[1243] <= 122.086\nsquared_error = 0.0\nsamples = 2\nvalue = 51.04"] ;
453 -> 454 ;
455 [label="squared_error = 0.0\nsamples = 1\nvalue = 51.035"] ;
454 -> 455 ;
456 [label="squared_error = 0.0\nsamples = 1\nvalue = 51.045"] ;
454 -> 456 ;
457 [label="x[375] <= 122.322\nsquared_error = 0.407\nsamples = 2\nvalue = 56.629"] ;
453 -> 457 ;
458 [label="squared_error = 0.0\nsamples = 1\nvalue = 57.267"] ;
457 -> 458 ;
459 [label="squared_error = 0.0\nsamples = 1\nvalue = 55.991"] ;
457 -> 459 ;
460 [label="x[264] <= 122.68\nsquared_error = 73.348\nsamples = 6\nvalue = 32.242"] ;
450 -> 460 ;
461 [label="squared_error = 0.0\nsamples = 1\nvalue = 18.879"] ;
460 -> 461 ;
462 [label="x[1503] <= 0.993\nsquared_error = 45.157\nsamples = 5\nvalue = 34.915"] ;
460 -> 462 ;
463 [label="x[1024] <= 123.218\nsquared_error = 21.981\nsamples = 4\nvalue = 37.541"] ;
462 -> 463 ;
464 [label="x[47] <= 123.105\nsquared_error = 1.026\nsamples = 3\nvalue = 40.2"] ;
463 -> 464 ;
465 [label="x[1201] <= 122.99\nsquared_error = 0.103\nsamples = 2\nvalue = 40.891"] ;
464 -> 465 ;
466 [label="squared_error = 0.0\nsamples = 1\nvalue = 40.57"] ;
465 -> 466 ;
467 [label="squared_error = 0.0\nsamples = 1\nvalue = 41.213"] ;
465 -> 467 ;
468 [label="squared_error = -0.0\nsamples = 1\nvalue = 38.816"] ;
464 -> 468 ;
469 [label="squared_error = -0.0\nsamples = 1\nvalue = 29.564"] ;
463 -> 469 ;
470 [label="squared_error = -0.0\nsamples = 1\nvalue = 24.413"] ;
462 -> 470 ;
471 [label="x[807] <= 122.647\nsquared_error = 92.316\nsamples = 11\nvalue = 44.036"] ;
355 -> 471 ;
472 [label="x[45] <= 122.027\nsquared_error = 62.065\nsamples = 9\nvalue = 47.041"] ;
471 -> 472 ;
473 [label="x[1503] <= 2.46\nsquared_error = 29.448\nsamples = 5\nvalue = 41.189"] ;
472 -> 473 ;
474 [label="x[1503] <= 2.304\nsquared_error = 34.902\nsamples = 3\nvalue = 43.533"] ;
473 -> 474 ;
475 [label="x[698] <= 121.698\nsquared_error = 6.185\nsamples = 2\nvalue = 39.611"] ;
474 -> 475 ;
476 [label="squared_error = 0.0\nsamples = 1\nvalue = 37.124"] ;
475 -> 476 ;
477 [label="squared_error = -0.0\nsamples = 1\nvalue = 42.097"] ;
475 -> 477 ;
478 [label="squared_error = 0.0\nsamples = 1\nvalue = 51.379"] ;
474 -> 478 ;
479 [label="x[1503] <= 2.616\nsquared_error = 0.657\nsamples = 2\nvalue = 37.673"] ;
473 -> 479 ;
480 [label="squared_error = 0.0\nsamples = 1\nvalue = 36.862"] ;
479 -> 480 ;
481 [label="squared_error = -0.0\nsamples = 1\nvalue = 38.483"] ;
479 -> 481 ;
482 [label="x[1503] <= 1.262\nsquared_error = 6.519\nsamples = 4\nvalue = 54.356"] ;
472 -> 482 ;
483 [label="squared_error = 0.0\nsamples = 1\nvalue = 51.416"] ;
482 -> 483 ;
484 [label="x[1503] <= 1.852\nsquared_error = 4.851\nsamples = 3\nvalue = 55.336"] ;
482 -> 484 ;
485 [label="squared_error = 0.0\nsamples = 1\nvalue = 58.169"] ;
484 -> 485 ;
486 [label="x[338] <= 122.408\nsquared_error = 1.258\nsamples = 2\nvalue = 53.92"] ;
484 -> 486 ;
487 [label="squared_error = 0.0\nsamples = 1\nvalue = 55.041"] ;
486 -> 487 ;
488 [label="squared_error = 0.0\nsamples = 1\nvalue = 52.798"] ;
486 -> 488 ;
489 [label="x[262] <= 123.056\nsquared_error = 4.965\nsamples = 2\nvalue = 30.514"] ;
471 -> 489 ;
490 [label="squared_error = 0.0\nsamples = 1\nvalue = 28.286"] ;
489 -> 490 ;
491 [label="squared_error = -0.0\nsamples = 1\nvalue = 32.742"] ;
489 -> 491 ;
492 [label="squared_error = 0.0\nsamples = 1\nvalue = 4.862"] ;
296 -> 492 ;
493 [label="x[1503] <= -2.859\nsquared_error = 259.248\nsamples = 65\nvalue = 27.89"] ;
295 -> 493 ;
494 [label="x[1503] <= -4.311\nsquared_error = 301.051\nsamples = 22\nvalue = 34.313"] ;
493 -> 494 ;
495 [label="x[622] <= 124.747\nsquared_error = 288.44\nsamples = 15\nvalue = 28.825"] ;
494 -> 495 ;
496 [label="x[605] <= 124.478\nsquared_error = 304.114\nsamples = 8\nvalue = 37.634"] ;
495 -> 496 ;
497 [label="x[1503] <= -7.441\nsquared_error = 270.408\nsamples = 5\nvalue = 28.939"] ;
496 -> 497 ;
498 [label="squared_error = 0.0\nsamples = 1\nvalue = 58.379"] ;
497 -> 498 ;
499 [label="x[740] <= 124.145\nsquared_error = 67.167\nsamples = 4\nvalue = 21.579"] ;
497 -> 499 ;
500 [label="x[244] <= 123.949\nsquared_error = 7.187\nsamples = 3\nvalue = 26.117"] ;
499 -> 500 ;
501 [label="x[403] <= 123.748\nsquared_error = 2.53\nsamples = 2\nvalue = 24.459"] ;
500 -> 501 ;
502 [label="squared_error = 0.0\nsamples = 1\nvalue = 22.868"] ;
501 -> 502 ;
503 [label="squared_error = -0.0\nsamples = 1\nvalue = 26.049"] ;
501 -> 503 ;
504 [label="squared_error = 0.0\nsamples = 1\nvalue = 29.434"] ;
500 -> 504 ;
505 [label="squared_error = -0.0\nsamples = 1\nvalue = 7.966"] ;
499 -> 505 ;
506 [label="x[1145] <= 124.685\nsquared_error = 24.281\nsamples = 3\nvalue = 52.126"] ;
496 -> 506 ;
507 [label="x[444] <= 124.655\nsquared_error = 2.144\nsamples = 2\nvalue = 55.506"] ;
506 -> 507 ;
508 [label="squared_error = 0.0\nsamples = 1\nvalue = 54.041"] ;
507 -> 508 ;
509 [label="squared_error = 0.0\nsamples = 1\nvalue = 56.97"] ;
507 -> 509 ;
510 [label="squared_error = -0.0\nsamples = 1\nvalue = 45.365"] ;
506 -> 510 ;
511 [label="x[142] <= 124.892\nsquared_error = 80.497\nsamples = 7\nvalue = 18.758"] ;
495 -> 511 ;
512 [label="x[899] <= 124.841\nsquared_error = 5.665\nsamples = 2\nvalue = 5.825"] ;
511 -> 512 ;
513 [label="squared_error = 0.0\nsamples = 1\nvalue = 3.445"] ;
512 -> 513 ;
514 [label="squared_error = -0.0\nsamples = 1\nvalue = 8.205"] ;
512 -> 514 ;
515 [label="x[1503] <= -4.713\nsquared_error = 16.757\nsamples = 5\nvalue = 23.931"] ;
511 -> 515 ;
516 [label="x[924] <= 125.121\nsquared_error = 3.743\nsamples = 4\nvalue = 22.076"] ;
515 -> 516 ;
517 [label="squared_error = 0.0\nsamples = 1\nvalue = 25.128"] ;
516 -> 517 ;
518 [label="x[1503] <= -5.333\nsquared_error = 0.851\nsamples = 3\nvalue = 21.059"] ;
516 -> 518 ;
519 [label="squared_error = 0.0\nsamples = 1\nvalue = 19.755"] ;
518 -> 519 ;
520 [label="x[917] <= 125.439\nsquared_error = 0.0\nsamples = 2\nvalue = 21.711"] ;
518 -> 520 ;
521 [label="squared_error = 0.0\nsamples = 1\nvalue = 21.706"] ;
520 -> 521 ;
522 [label="squared_error = -0.0\nsamples = 1\nvalue = 21.717"] ;
520 -> 522 ;
523 [label="squared_error = 0.0\nsamples = 1\nvalue = 31.351"] ;
515 -> 523 ;
524 [label="x[7] <= 124.127\nsquared_error = 125.257\nsamples = 7\nvalue = 46.073"] ;
494 -> 524 ;
525 [label="squared_error = 0.0\nsamples = 1\nvalue = 22.692"] ;
524 -> 525 ;
526 [label="x[1002] <= 125.395\nsquared_error = 39.842\nsamples = 6\nvalue = 49.969"] ;
524 -> 526 ;
527 [label="x[1503] <= -3.208\nsquared_error = 11.201\nsamples = 5\nvalue = 52.439"] ;
526 -> 527 ;
528 [label="x[121] <= 124.724\nsquared_error = 0.075\nsamples = 2\nvalue = 56.232"] ;
527 -> 528 ;
529 [label="squared_error = 0.0\nsamples = 1\nvalue = 55.958"] ;
528 -> 529 ;
530 [label="squared_error = -0.0\nsamples = 1\nvalue = 56.505"] ;
528 -> 530 ;
531 [label="x[408] <= 125.22\nsquared_error = 2.637\nsamples = 3\nvalue = 49.911"] ;
527 -> 531 ;
532 [label="squared_error = 0.0\nsamples = 1\nvalue = 48.068"] ;
531 -> 532 ;
533 [label="x[812] <= 125.232\nsquared_error = 1.409\nsamples = 2\nvalue = 50.832"] ;
531 -> 533 ;
534 [label="squared_error = 0.0\nsamples = 1\nvalue = 52.019"] ;
533 -> 534 ;
535 [label="squared_error = -0.0\nsamples = 1\nvalue = 49.645"] ;
533 -> 535 ;
536 [label="squared_error = 0.0\nsamples = 1\nvalue = 37.619"] ;
526 -> 536 ;
537 [label="x[306] <= 123.925\nsquared_error = 205.952\nsamples = 43\nvalue = 24.603"] ;
493 -> 537 ;
538 [label="x[382] <= 123.55\nsquared_error = 74.825\nsamples = 12\nvalue = 15.563"] ;
537 -> 538 ;
539 [label="squared_error = 0.0\nsamples = 1\nvalue = 2.907"] ;
538 -> 539 ;
540 [label="x[196] <= 123.643\nsquared_error = 65.741\nsamples = 11\nvalue = 16.714"] ;
538 -> 540 ;
541 [label="squared_error = 0.0\nsamples = 1\nvalue = 33.915"] ;
540 -> 541 ;
542 [label="x[1503] <= 0.301\nsquared_error = 39.769\nsamples = 10\nvalue = 14.994"] ;
540 -> 542 ;
543 [label="x[1503] <= -1.293\nsquared_error = 16.397\nsamples = 5\nvalue = 18.237"] ;
542 -> 543 ;
544 [label="squared_error = 0.0\nsamples = 1\nvalue = 11.586"] ;
543 -> 544 ;
545 [label="x[1503] <= -0.704\nsquared_error = 6.673\nsamples = 4\nvalue = 19.9"] ;
543 -> 545 ;
546 [label="squared_error = 0.0\nsamples = 1\nvalue = 23.731"] ;
545 -> 546 ;
547 [label="x[133] <= 123.856\nsquared_error = 2.375\nsamples = 3\nvalue = 18.623"] ;
545 -> 547 ;
548 [label="x[294] <= 123.74\nsquared_error = 1.02\nsamples = 2\nvalue = 17.703"] ;
547 -> 548 ;
549 [label="squared_error = 0.0\nsamples = 1\nvalue = 18.713"] ;
548 -> 549 ;
550 [label="squared_error = 0.0\nsamples = 1\nvalue = 16.692"] ;
548 -> 550 ;
551 [label="squared_error = 0.0\nsamples = 1\nvalue = 20.464"] ;
547 -> 551 ;
552 [label="x[374] <= 123.736\nsquared_error = 42.098\nsamples = 5\nvalue = 11.75"] ;
542 -> 552 ;
553 [label="x[977] <= 123.721\nsquared_error = 16.903\nsamples = 2\nvalue = 18.331"] ;
552 -> 553 ;
554 [label="squared_error = 0.0\nsamples = 1\nvalue = 22.442"] ;
553 -> 554 ;
555 [label="squared_error = -0.0\nsamples = 1\nvalue = 14.219"] ;
553 -> 555 ;
556 [label="x[1503] <= 0.507\nsquared_error = 10.777\nsamples = 3\nvalue = 7.363"] ;
552 -> 556 ;
557 [label="squared_error = 0.0\nsamples = 1\nvalue = 11.953"] ;
556 -> 557 ;
558 [label="x[1046] <= 123.812\nsquared_error = 0.359\nsamples = 2\nvalue = 5.067"] ;
556 -> 558 ;
559 [label="squared_error = 0.0\nsamples = 1\nvalue = 5.666"] ;
558 -> 559 ;
560 [label="squared_error = -0.0\nsamples = 1\nvalue = 4.468"] ;
558 -> 560 ;
561 [label="x[1503] <= 2.434\nsquared_error = 212.827\nsamples = 31\nvalue = 28.103"] ;
537 -> 561 ;
562 [label="x[1503] <= 1.926\nsquared_error = 197.163\nsamples = 30\nvalue = 28.96"] ;
561 -> 562 ;
563 [label="x[777] <= 123.996\nsquared_error = 180.946\nsamples = 27\nvalue = 27.062"] ;
562 -> 563 ;
564 [label="squared_error = 0.0\nsamples = 1\nvalue = 51.063"] ;
563 -> 564 ;
565 [label="x[718] <= 125.571\nsquared_error = 164.898\nsamples = 26\nvalue = 26.139"] ;
563 -> 565 ;
566 [label="x[1503] <= -2.464\nsquared_error = 154.501\nsamples = 25\nvalue = 25.331"] ;
565 -> 566 ;
567 [label="squared_error = 0.0\nsamples = 1\nvalue = 8.592"] ;
566 -> 567 ;
568 [label="x[1503] <= 1.354\nsquared_error = 148.778\nsamples = 24\nvalue = 26.028"] ;
566 -> 568 ;
569 [label="x[1503] <= 0.975\nsquared_error = 163.948\nsamples = 16\nvalue = 28.677"] ;
568 -> 569 ;
570 [label="x[799] <= 124.046\nsquared_error = 114.269\nsamples = 15\nvalue = 26.731"] ;
569 -> 570 ;
571 [label="squared_error = 0.0\nsamples = 1\nvalue = 9.65"] ;
570 -> 571 ;
572 [label="x[1503] <= -0.425\nsquared_error = 100.103\nsamples = 14\nvalue = 27.951"] ;
570 -> 572 ;
573 [label="x[1067] <= 124.848\nsquared_error = 81.055\nsamples = 10\nvalue = 24.471"] ;
572 -> 573 ;
574 [label="x[554] <= 124.402\nsquared_error = 49.729\nsamples = 6\nvalue = 27.564"] ;
573 -> 574 ;
575 [label="x[46] <= 124.159\nsquared_error = 0.55\nsamples = 2\nvalue = 19.343"] ;
574 -> 575 ;
576 [label="squared_error = 0.0\nsamples = 1\nvalue = 20.084"] ;
575 -> 576 ;
577 [label="squared_error = 0.0\nsamples = 1\nvalue = 18.602"] ;
575 -> 577 ;
578 [label="x[1503] <= -1.188\nsquared_error = 23.628\nsamples = 4\nvalue = 31.675"] ;
574 -> 578 ;
579 [label="x[1503] <= -1.443\nsquared_error = 1.942\nsamples = 3\nvalue = 28.956"] ;
578 -> 579 ;
580 [label="x[1425] <= 124.726\nsquared_error = 0.405\nsamples = 2\nvalue = 28.042"] ;
579 -> 580 ;
581 [label="squared_error = 0.0\nsamples = 1\nvalue = 27.405"] ;
580 -> 581 ;
582 [label="squared_error = 0.0\nsamples = 1\nvalue = 28.678"] ;
580 -> 582 ;
583 [label="squared_error = 0.0\nsamples = 1\nvalue = 30.785"] ;
579 -> 583 ;
584 [label="squared_error = 0.0\nsamples = 1\nvalue = 39.83"] ;
578 -> 584 ;
585 [label="x[1426] <= 124.88\nsquared_error = 92.157\nsamples = 4\nvalue = 19.83"] ;
573 -> 585 ;
586 [label="squared_error = 0.0\nsamples = 1\nvalue = 3.428"] ;
585 -> 586 ;
587 [label="x[1503] <= -0.841\nsquared_error = 3.304\nsamples = 3\nvalue = 25.298"] ;
585 -> 587 ;
588 [label="x[747] <= 125.221\nsquared_error = 0.402\nsamples = 2\nvalue = 24.066"] ;
587 -> 588 ;
589 [label="squared_error = 0.0\nsamples = 1\nvalue = 24.7"] ;
588 -> 589 ;
590 [label="squared_error = -0.0\nsamples = 1\nvalue = 23.432"] ;
588 -> 590 ;
591 [label="squared_error = 0.0\nsamples = 1\nvalue = 27.762"] ;
587 -> 591 ;
592 [label="x[15] <= 124.132\nsquared_error = 41.752\nsamples = 4\nvalue = 36.651"] ;
572 -> 592 ;
593 [label="x[974] <= 124.056\nsquared_error = 22.41\nsamples = 2\nvalue = 31.622"] ;
592 -> 593 ;
594 [label="squared_error = 0.0\nsamples = 1\nvalue = 36.356"] ;
593 -> 594 ;
595 [label="squared_error = 0.0\nsamples = 1\nvalue = 26.888"] ;
593 -> 595 ;
596 [label="x[1098] <= 124.356\nsquared_error = 10.506\nsamples = 2\nvalue = 41.68"] ;
592 -> 596 ;
597 [label="squared_error = 0.0\nsamples = 1\nvalue = 38.439"] ;
596 -> 597 ;
598 [label="squared_error = 0.0\nsamples = 1\nvalue = 44.922"] ;
596 -> 598 ;
599 [label="squared_error = -0.0\nsamples = 1\nvalue = 57.871"] ;
569 -> 599 ;
600 [label="x[1503] <= 1.451\nsquared_error = 76.344\nsamples = 8\nvalue = 20.731"] ;
568 -> 600 ;
601 [label="x[1119] <= 124.49\nsquared_error = 6.229\nsamples = 2\nvalue = 6.906"] ;
600 -> 601 ;
602 [label="squared_error = 0.0\nsamples = 1\nvalue = 9.401"] ;
601 -> 602 ;
603 [label="squared_error = -0.0\nsamples = 1\nvalue = 4.41"] ;
601 -> 603 ;
604 [label="x[1503] <= 1.582\nsquared_error = 14.766\nsamples = 6\nvalue = 25.339"] ;
600 -> 604 ;
605 [label="x[1503] <= 1.475\nsquared_error = 16.298\nsamples = 3\nvalue = 22.878"] ;
604 -> 605 ;
606 [label="squared_error = 0.0\nsamples = 1\nvalue = 28.51"] ;
605 -> 606 ;
607 [label="x[224] <= 124.747\nsquared_error = 0.656\nsamples = 2\nvalue = 20.062"] ;
605 -> 607 ;
608 [label="squared_error = 0.0\nsamples = 1\nvalue = 20.872"] ;
607 -> 608 ;
609 [label="squared_error = -0.0\nsamples = 1\nvalue = 19.252"] ;
607 -> 609 ;
610 [label="x[317] <= 125.008\nsquared_error = 1.116\nsamples = 3\nvalue = 27.801"] ;
604 -> 610 ;
611 [label="squared_error = 0.0\nsamples = 1\nvalue = 29.209"] ;
610 -> 611 ;
612 [label="x[1212] <= 125.307\nsquared_error = 0.187\nsamples = 2\nvalue = 27.097"] ;
610 -> 612 ;
613 [label="squared_error = 0.0\nsamples = 1\nvalue = 27.53"] ;
612 -> 613 ;
614 [label="squared_error = 0.0\nsamples = 1\nvalue = 26.664"] ;
612 -> 614 ;
615 [label="squared_error = 0.0\nsamples = 1\nvalue = 46.35"] ;
565 -> 615 ;
616 [label="x[1206] <= 125.005\nsquared_error = 19.108\nsamples = 3\nvalue = 46.036"] ;
562 -> 616 ;
617 [label="x[1465] <= 124.517\nsquared_error = 10.942\nsamples = 2\nvalue = 48.467"] ;
616 -> 617 ;
618 [label="squared_error = 0.0\nsamples = 1\nvalue = 45.159"] ;
617 -> 618 ;
619 [label="squared_error = 0.0\nsamples = 1\nvalue = 51.774"] ;
617 -> 619 ;
620 [label="squared_error = -0.0\nsamples = 1\nvalue = 41.176"] ;
616 -> 620 ;
621 [label="squared_error = -0.0\nsamples = 1\nvalue = 2.398"] ;
561 -> 621 ;
622 [label="x[1503] <= 4.6\nsquared_error = 265.425\nsamples = 176\nvalue = 34.723"] ;
294 -> 622 ;
623 [label="x[1110] <= 124.746\nsquared_error = 202.211\nsamples = 58\nvalue = 39.85"] ;
622 -> 623 ;
624 [label="x[1503] <= 4.396\nsquared_error = 217.01\nsamples = 49\nvalue = 38.232"] ;
623 -> 624 ;
625 [label="x[1503] <= 4.26\nsquared_error = 218.891\nsamples = 42\nvalue = 36.426"] ;
624 -> 625 ;
626 [label="x[1503] <= 3.913\nsquared_error = 217.639\nsamples = 37\nvalue = 37.709"] ;
625 -> 626 ;
627 [label="x[1503] <= 3.323\nsquared_error = 261.147\nsamples = 27\nvalue = 35.125"] ;
626 -> 627 ;
628 [label="x[1503] <= 3.279\nsquared_error = 251.993\nsamples = 14\nvalue = 40.413"] ;
627 -> 628 ;
629 [label="x[946] <= 120.659\nsquared_error = 230.504\nsamples = 12\nvalue = 37.404"] ;
628 -> 629 ;
630 [label="x[135] <= 120.621\nsquared_error = 5.779\nsamples = 2\nvalue = 55.434"] ;
629 -> 630 ;
631 [label="squared_error = 0.0\nsamples = 1\nvalue = 53.03"] ;
630 -> 631 ;
632 [label="squared_error = -0.0\nsamples = 1\nvalue = 57.838"] ;
630 -> 632 ;
633 [label="x[1503] <= 3.042\nsquared_error = 197.43\nsamples = 10\nvalue = 33.798"] ;
629 -> 633 ;
634 [label="x[1503] <= 3.027\nsquared_error = 108.317\nsamples = 5\nvalue = 41.892"] ;
633 -> 634 ;
635 [label="x[1503] <= 2.973\nsquared_error = 51.087\nsamples = 4\nvalue = 37.786"] ;
634 -> 635 ;
636 [label="x[704] <= 121.405\nsquared_error = 12.782\nsamples = 3\nvalue = 41.505"] ;
635 -> 636 ;
637 [label="squared_error = 0.0\nsamples = 1\nvalue = 46.179"] ;
636 -> 637 ;
638 [label="x[405] <= 122.752\nsquared_error = 2.788\nsamples = 2\nvalue = 39.168"] ;
636 -> 638 ;
639 [label="squared_error = 0.0\nsamples = 1\nvalue = 40.838"] ;
638 -> 639 ;
640 [label="squared_error = -0.0\nsamples = 1\nvalue = 37.498"] ;
638 -> 640 ;
641 [label="squared_error = -0.0\nsamples = 1\nvalue = 26.628"] ;
635 -> 641 ;
642 [label="squared_error = 0.0\nsamples = 1\nvalue = 58.317"] ;
634 -> 642 ;
643 [label="x[1503] <= 3.163\nsquared_error = 155.516\nsamples = 5\nvalue = 25.704"] ;
633 -> 643 ;
644 [label="x[532] <= 121.313\nsquared_error = 51.715\nsamples = 3\nvalue = 18.556"] ;
643 -> 644 ;
645 [label="squared_error = 0.0\nsamples = 1\nvalue = 8.529"] ;
644 -> 645 ;
646 [label="x[877] <= 122.738\nsquared_error = 2.168\nsamples = 2\nvalue = 23.57"] ;
644 -> 646 ;
647 [label="squared_error = 0.0\nsamples = 1\nvalue = 25.042"] ;
646 -> 647 ;
648 [label="squared_error = -0.0\nsamples = 1\nvalue = 22.097"] ;
646 -> 648 ;
649 [label="x[1150] <= 121.515\nsquared_error = 119.634\nsamples = 2\nvalue = 36.425"] ;
643 -> 649 ;
650 [label="squared_error = 0.0\nsamples = 1\nvalue = 25.488"] ;
649 -> 650 ;
651 [label="squared_error = -0.0\nsamples = 1\nvalue = 47.363"] ;
649 -> 651 ;
652 [label="x[378] <= 123.726\nsquared_error = 0.634\nsamples = 2\nvalue = 58.467"] ;
628 -> 652 ;
653 [label="squared_error = 0.0\nsamples = 1\nvalue = 57.671"] ;
652 -> 653 ;
654 [label="squared_error = -0.0\nsamples = 1\nvalue = 59.263"] ;
652 -> 654 ;
655 [label="x[1503] <= 3.473\nsquared_error = 208.454\nsamples = 13\nvalue = 29.43"] ;
627 -> 655 ;
656 [label="x[389] <= 122.917\nsquared_error = 89.226\nsamples = 3\nvalue = 17.064"] ;
655 -> 656 ;
657 [label="squared_error = 0.0\nsamples = 1\nvalue = 3.807"] ;
656 -> 657 ;
658 [label="x[87] <= 123.96\nsquared_error = 2.025\nsamples = 2\nvalue = 23.692"] ;
656 -> 658 ;
659 [label="squared_error = 0.0\nsamples = 1\nvalue = 25.115"] ;
658 -> 659 ;
660 [label="squared_error = 0.0\nsamples = 1\nvalue = 22.27"] ;
658 -> 660 ;
661 [label="x[1503] <= 3.636\nsquared_error = 184.587\nsamples = 10\nvalue = 33.139"] ;
655 -> 661 ;
662 [label="x[15] <= 122.43\nsquared_error = 239.992\nsamples = 3\nvalue = 44.422"] ;
661 -> 662 ;
663 [label="x[315] <= 121.851\nsquared_error = 238.151\nsamples = 2\nvalue = 38.05"] ;
662 -> 663 ;
664 [label="squared_error = 0.0\nsamples = 1\nvalue = 53.482"] ;
663 -> 664 ;
665 [label="squared_error = 0.0\nsamples = 1\nvalue = 22.617"] ;
663 -> 665 ;
666 [label="squared_error = 0.0\nsamples = 1\nvalue = 57.168"] ;
662 -> 666 ;
667 [label="x[1503] <= 3.837\nsquared_error = 82.898\nsamples = 7\nvalue = 28.304"] ;
661 -> 667 ;
668 [label="x[512] <= 123.147\nsquared_error = 22.036\nsamples = 3\nvalue = 19.19"] ;
667 -> 668 ;
669 [label="x[561] <= 121.628\nsquared_error = 1.115\nsamples = 2\nvalue = 15.927"] ;
668 -> 669 ;
670 [label="squared_error = 0.0\nsamples = 1\nvalue = 14.871"] ;
669 -> 670 ;
671 [label="squared_error = 0.0\nsamples = 1\nvalue = 16.983"] ;
669 -> 671 ;
672 [label="squared_error = -0.0\nsamples = 1\nvalue = 25.715"] ;
668 -> 672 ;
673 [label="x[1503] <= 3.852\nsquared_error = 19.522\nsamples = 4\nvalue = 35.139"] ;
667 -> 673 ;
674 [label="squared_error = 0.0\nsamples = 1\nvalue = 42.567"] ;
673 -> 674 ;
675 [label="x[759] <= 123.556\nsquared_error = 1.51\nsamples = 3\nvalue = 32.663"] ;
673 -> 675 ;
676 [label="x[350] <= 121.496\nsquared_error = 0.014\nsamples = 2\nvalue = 31.797"] ;
675 -> 676 ;
677 [label="squared_error = 0.0\nsamples = 1\nvalue = 31.679"] ;
676 -> 677 ;
678 [label="squared_error = -0.0\nsamples = 1\nvalue = 31.915"] ;
676 -> 678 ;
679 [label="squared_error = -0.0\nsamples = 1\nvalue = 34.396"] ;
675 -> 679 ;
680 [label="x[254] <= 121.699\nsquared_error = 33.423\nsamples = 10\nvalue = 44.688"] ;
626 -> 680 ;
681 [label="squared_error = 0.0\nsamples = 1\nvalue = 59.131"] ;
680 -> 681 ;
682 [label="x[1503] <= 4.198\nsquared_error = 11.386\nsamples = 9\nvalue = 43.084"] ;
680 -> 682 ;
683 [label="x[1503] <= 4.019\nsquared_error = 6.095\nsamples = 7\nvalue = 41.729"] ;
682 -> 683 ;
684 [label="x[796] <= 124.036\nsquared_error = 8.083\nsamples = 3\nvalue = 43.055"] ;
683 -> 684 ;
685 [label="x[701] <= 122.968\nsquared_error = 0.341\nsamples = 2\nvalue = 45.036"] ;
684 -> 685 ;
686 [label="squared_error = 0.0\nsamples = 1\nvalue = 44.452"] ;
685 -> 686 ;
687 [label="squared_error = 0.0\nsamples = 1\nvalue = 45.621"] ;
685 -> 687 ;
688 [label="squared_error = 0.0\nsamples = 1\nvalue = 39.091"] ;
684 -> 688 ;
689 [label="x[288] <= 122.486\nsquared_error = 2.297\nsamples = 4\nvalue = 40.734"] ;
683 -> 689 ;
690 [label="squared_error = 0.0\nsamples = 1\nvalue = 38.167"] ;
689 -> 690 ;
691 [label="x[1417] <= 124.136\nsquared_error = 0.134\nsamples = 3\nvalue = 41.59"] ;
689 -> 691 ;
692 [label="x[761] <= 123.255\nsquared_error = 0.033\nsamples = 2\nvalue = 41.353"] ;
691 -> 692 ;
693 [label="squared_error = 0.0\nsamples = 1\nvalue = 41.172"] ;
692 -> 693 ;
694 [label="squared_error = 0.0\nsamples = 1\nvalue = 41.535"] ;
692 -> 694 ;
695 [label="squared_error = -0.0\nsamples = 1\nvalue = 42.063"] ;
691 -> 695 ;
696 [label="x[1331] <= 122.642\nsquared_error = 0.993\nsamples = 2\nvalue = 47.826"] ;
682 -> 696 ;
697 [label="squared_error = 0.0\nsamples = 1\nvalue = 48.822"] ;
696 -> 697 ;
698 [label="squared_error = 0.0\nsamples = 1\nvalue = 46.829"] ;
696 -> 698 ;
699 [label="x[114] <= 123.222\nsquared_error = 125.808\nsamples = 5\nvalue = 26.931"] ;
625 -> 699 ;
700 [label="x[945] <= 122.526\nsquared_error = 58.0\nsamples = 2\nvalue = 38.37"] ;
699 -> 700 ;
701 [label="squared_error = 0.0\nsamples = 1\nvalue = 30.754"] ;
700 -> 701 ;
702 [label="squared_error = 0.0\nsamples = 1\nvalue = 45.986"] ;
700 -> 702 ;
703 [label="x[1503] <= 4.378\nsquared_error = 25.629\nsamples = 3\nvalue = 19.305"] ;
699 -> 703 ;
704 [label="x[1256] <= 123.827\nsquared_error = 1.125\nsamples = 2\nvalue = 15.778"] ;
703 -> 704 ;
705 [label="squared_error = 0.0\nsamples = 1\nvalue = 14.718"] ;
704 -> 705 ;
706 [label="squared_error = 0.0\nsamples = 1\nvalue = 16.839"] ;
704 -> 706 ;
707 [label="squared_error = 0.0\nsamples = 1\nvalue = 26.359"] ;
703 -> 707 ;
708 [label="x[1503] <= 4.536\nsquared_error = 68.747\nsamples = 7\nvalue = 49.068"] ;
624 -> 708 ;
709 [label="x[1429] <= 122.896\nsquared_error = 1.18\nsamples = 3\nvalue = 53.669"] ;
708 -> 709 ;
710 [label="x[270] <= 121.346\nsquared_error = 0.039\nsamples = 2\nvalue = 52.91"] ;
709 -> 710 ;
711 [label="squared_error = 0.0\nsamples = 1\nvalue = 52.713"] ;
710 -> 711 ;
712 [label="squared_error = 0.0\nsamples = 1\nvalue = 53.106"] ;
710 -> 712 ;
713 [label="squared_error = 0.0\nsamples = 1\nvalue = 55.188"] ;
709 -> 713 ;
714 [label="x[1503] <= 4.55\nsquared_error = 91.635\nsamples = 4\nvalue = 45.617"] ;
708 -> 714 ;
715 [label="squared_error = 0.0\nsamples = 1\nvalue = 29.6"] ;
714 -> 715 ;
716 [label="x[1279] <= 122.571\nsquared_error = 8.154\nsamples = 3\nvalue = 50.956"] ;
714 -> 716 ;
717 [label="squared_error = 0.0\nsamples = 1\nvalue = 47.329"] ;
716 -> 717 ;
718 [label="x[1277] <= 124.02\nsquared_error = 2.362\nsamples = 2\nvalue = 52.77"] ;
716 -> 718 ;
719 [label="squared_error = 0.0\nsamples = 1\nvalue = 51.233"] ;
718 -> 719 ;
720 [label="squared_error = 0.0\nsamples = 1\nvalue = 54.307"] ;
718 -> 720 ;
721 [label="x[1503] <= 3.143\nsquared_error = 29.78\nsamples = 9\nvalue = 48.66"] ;
623 -> 721 ;
722 [label="squared_error = 0.0\nsamples = 1\nvalue = 59.213"] ;
721 -> 722 ;
723 [label="x[1503] <= 3.843\nsquared_error = 17.84\nsamples = 8\nvalue = 47.341"] ;
721 -> 723 ;
724 [label="x[953] <= 124.805\nsquared_error = 6.464\nsamples = 5\nvalue = 49.524"] ;
723 -> 724 ;
725 [label="squared_error = 0.0\nsamples = 1\nvalue = 45.437"] ;
724 -> 725 ;
726 [label="x[1503] <= 3.701\nsquared_error = 2.86\nsamples = 4\nvalue = 50.546"] ;
724 -> 726 ;
727 [label="x[891] <= 125.169\nsquared_error = 0.859\nsamples = 3\nvalue = 51.406"] ;
726 -> 727 ;
728 [label="x[1401] <= 124.849\nsquared_error = 0.163\nsamples = 2\nvalue = 52.018"] ;
727 -> 728 ;
729 [label="squared_error = 0.0\nsamples = 1\nvalue = 52.422"] ;
728 -> 729 ;
730 [label="squared_error = 0.0\nsamples = 1\nvalue = 51.614"] ;
728 -> 730 ;
731 [label="squared_error = -0.0\nsamples = 1\nvalue = 50.181"] ;
727 -> 731 ;
732 [label="squared_error = 0.0\nsamples = 1\nvalue = 47.968"] ;
726 -> 732 ;
733 [label="x[568] <= 124.888\nsquared_error = 15.604\nsamples = 3\nvalue = 43.701"] ;
723 -> 733 ;
734 [label="squared_error = 0.0\nsamples = 1\nvalue = 49.247"] ;
733 -> 734 ;
735 [label="x[851] <= 125.133\nsquared_error = 0.336\nsamples = 2\nvalue = 40.928"] ;
733 -> 735 ;
736 [label="squared_error = 0.0\nsamples = 1\nvalue = 41.507"] ;
735 -> 736 ;
737 [label="squared_error = 0.0\nsamples = 1\nvalue = 40.348"] ;
735 -> 737 ;
738 [label="x[497] <= 120.423\nsquared_error = 277.223\nsamples = 118\nvalue = 32.203"] ;
622 -> 738 ;
739 [label="x[751] <= 120.246\nsquared_error = 162.57\nsamples = 8\nvalue = 40.526"] ;
738 -> 739 ;
740 [label="x[8] <= 120.208\nsquared_error = 9.123\nsamples = 3\nvalue = 25.37"] ;
739 -> 740 ;
741 [label="squared_error = 0.0\nsamples = 1\nvalue = 29.29"] ;
740 -> 741 ;
742 [label="x[1460] <= 120.216\nsquared_error = 2.161\nsamples = 2\nvalue = 23.41"] ;
740 -> 742 ;
743 [label="squared_error = 0.0\nsamples = 1\nvalue = 24.88"] ;
742 -> 743 ;
744 [label="squared_error = -0.0\nsamples = 1\nvalue = 21.94"] ;
742 -> 744 ;
745 [label="x[341] <= 120.356\nsquared_error = 34.11\nsamples = 5\nvalue = 49.62"] ;
739 -> 745 ;
746 [label="x[206] <= 120.33\nsquared_error = 15.954\nsamples = 3\nvalue = 45.576"] ;
745 -> 746 ;
747 [label="x[1419] <= 120.291\nsquared_error = 0.059\nsamples = 2\nvalue = 48.397"] ;
746 -> 747 ;
748 [label="squared_error = 0.0\nsamples = 1\nvalue = 48.639"] ;
747 -> 748 ;
749 [label="squared_error = 0.0\nsamples = 1\nvalue = 48.155"] ;
747 -> 749 ;
750 [label="squared_error = -0.0\nsamples = 1\nvalue = 39.934"] ;
746 -> 750 ;
751 [label="x[516] <= 120.368\nsquared_error = 0.005\nsamples = 2\nvalue = 55.687"] ;
745 -> 751 ;
752 [label="squared_error = 0.0\nsamples = 1\nvalue = 55.759"] ;
751 -> 752 ;
753 [label="squared_error = -0.0\nsamples = 1\nvalue = 55.615"] ;
751 -> 753 ;
754 [label="x[1049] <= 122.642\nsquared_error = 280.157\nsamples = 110\nvalue = 31.598"] ;
738 -> 754 ;
755 [label="x[408] <= 121.468\nsquared_error = 223.157\nsamples = 41\nvalue = 28.077"] ;
754 -> 755 ;
756 [label="x[1503] <= 4.734\nsquared_error = 215.377\nsamples = 24\nvalue = 31.802"] ;
755 -> 756 ;
757 [label="x[1143] <= 121.085\nsquared_error = 34.451\nsamples = 2\nvalue = 12.682"] ;
756 -> 757 ;
758 [label="squared_error = 0.0\nsamples = 1\nvalue = 18.552"] ;
757 -> 758 ;
759 [label="squared_error = -0.0\nsamples = 1\nvalue = 6.813"] ;
757 -> 759 ;
760 [label="x[1430] <= 121.222\nsquared_error = 195.572\nsamples = 22\nvalue = 33.54"] ;
756 -> 760 ;
761 [label="x[1503] <= 4.818\nsquared_error = 193.852\nsamples = 17\nvalue = 31.252"] ;
760 -> 761 ;
762 [label="squared_error = 0.0\nsamples = 1\nvalue = 52.756"] ;
761 -> 762 ;
763 [label="x[1503] <= 5.929\nsquared_error = 175.258\nsamples = 16\nvalue = 29.908"] ;
761 -> 763 ;
764 [label="x[387] <= 120.665\nsquared_error = 184.031\nsamples = 3\nvalue = 16.089"] ;
763 -> 764 ;
765 [label="squared_error = 0.0\nsamples = 1\nvalue = 34.914"] ;
764 -> 765 ;
766 [label="x[151] <= 121.027\nsquared_error = 10.26\nsamples = 2\nvalue = 6.677"] ;
764 -> 766 ;
767 [label="squared_error = 0.0\nsamples = 1\nvalue = 3.474"] ;
766 -> 767 ;
768 [label="squared_error = 0.0\nsamples = 1\nvalue = 9.88"] ;
766 -> 768 ;
769 [label="x[178] <= 120.771\nsquared_error = 118.998\nsamples = 13\nvalue = 33.097"] ;
763 -> 769 ;
770 [label="x[1503] <= 7.479\nsquared_error = 90.723\nsamples = 6\nvalue = 27.569"] ;
769 -> 770 ;
771 [label="x[1503] <= 7.331\nsquared_error = 37.433\nsamples = 4\nvalue = 33.3"] ;
770 -> 771 ;
772 [label="x[1503] <= 6.725\nsquared_error = 0.945\nsamples = 3\nvalue = 29.802"] ;
771 -> 772 ;
773 [label="x[34] <= 120.729\nsquared_error = 0.273\nsamples = 2\nvalue = 30.419"] ;
772 -> 773 ;
774 [label="squared_error = 0.0\nsamples = 1\nvalue = 30.942"] ;
773 -> 774 ;
775 [label="squared_error = 0.0\nsamples = 1\nvalue = 29.896"] ;
773 -> 775 ;
776 [label="squared_error = -0.0\nsamples = 1\nvalue = 28.567"] ;
772 -> 776 ;
777 [label="squared_error = 0.0\nsamples = 1\nvalue = 43.797"] ;
771 -> 777 ;
778 [label="x[1144] <= 120.671\nsquared_error = 0.218\nsamples = 2\nvalue = 16.107"] ;
770 -> 778 ;
779 [label="squared_error = 0.0\nsamples = 1\nvalue = 15.64"] ;
778 -> 779 ;
780 [label="squared_error = 0.0\nsamples = 1\nvalue = 16.573"] ;
778 -> 780 ;
781 [label="x[1503] <= 7.1\nsquared_error = 94.594\nsamples = 7\nvalue = 37.835"] ;
769 -> 781 ;
782 [label="x[1503] <= 6.88\nsquared_error = 45.606\nsamples = 3\nvalue = 30.684"] ;
781 -> 782 ;
783 [label="x[354] <= 121.088\nsquared_error = 3.46\nsamples = 2\nvalue = 35.337"] ;
782 -> 783 ;
784 [label="squared_error = 0.0\nsamples = 1\nvalue = 37.197"] ;
783 -> 784 ;
785 [label="squared_error = 0.0\nsamples = 1\nvalue = 33.476"] ;
783 -> 785 ;
786 [label="squared_error = 0.0\nsamples = 1\nvalue = 21.378"] ;
782 -> 786 ;
787 [label="x[738] <= 121.152\nsquared_error = 64.214\nsamples = 4\nvalue = 43.198"] ;
781 -> 787 ;
788 [label="x[177] <= 120.995\nsquared_error = 41.203\nsamples = 3\nvalue = 39.866"] ;
787 -> 788 ;
789 [label="x[675] <= 120.807\nsquared_error = 15.043\nsamples = 2\nvalue = 43.814"] ;
788 -> 789 ;
790 [label="squared_error = 0.0\nsamples = 1\nvalue = 47.693"] ;
789 -> 790 ;
791 [label="squared_error = 0.0\nsamples = 1\nvalue = 39.936"] ;
789 -> 791 ;
792 [label="squared_error = -0.0\nsamples = 1\nvalue = 31.97"] ;
788 -> 792 ;
793 [label="squared_error = -0.0\nsamples = 1\nvalue = 53.195"] ;
787 -> 793 ;
794 [label="x[445] <= 121.327\nsquared_error = 123.117\nsamples = 5\nvalue = 41.319"] ;
760 -> 794 ;
795 [label="x[1432] <= 121.268\nsquared_error = 13.835\nsamples = 2\nvalue = 53.806"] ;
794 -> 795 ;
796 [label="squared_error = 0.0\nsamples = 1\nvalue = 57.526"] ;
795 -> 796 ;
797 [label="squared_error = 0.0\nsamples = 1\nvalue = 50.086"] ;
795 -> 797 ;
798 [label="x[689] <= 121.418\nsquared_error = 22.708\nsamples = 3\nvalue = 32.994"] ;
794 -> 798 ;
799 [label="x[351] <= 121.368\nsquared_error = 6.703\nsamples = 2\nvalue = 29.974"] ;
798 -> 799 ;
800 [label="squared_error = 0.0\nsamples = 1\nvalue = 32.563"] ;
799 -> 800 ;
801 [label="squared_error = 0.0\nsamples = 1\nvalue = 27.385"] ;
799 -> 801 ;
802 [label="squared_error = 0.0\nsamples = 1\nvalue = 39.033"] ;
798 -> 802 ;
803 [label="x[818] <= 121.677\nsquared_error = 186.911\nsamples = 17\nvalue = 22.819"] ;
755 -> 803 ;
804 [label="x[1335] <= 121.57\nsquared_error = 3.851\nsamples = 2\nvalue = 8.764"] ;
803 -> 804 ;
805 [label="squared_error = 0.0\nsamples = 1\nvalue = 6.801"] ;
804 -> 805 ;
806 [label="squared_error = 0.0\nsamples = 1\nvalue = 10.726"] ;
804 -> 806 ;
807 [label="x[1503] <= 6.478\nsquared_error = 181.466\nsamples = 15\nvalue = 24.693"] ;
803 -> 807 ;
808 [label="x[1503] <= 5.979\nsquared_error = 122.263\nsamples = 11\nvalue = 20.701"] ;
807 -> 808 ;
809 [label="x[342] <= 122.497\nsquared_error = 120.621\nsamples = 8\nvalue = 24.11"] ;
808 -> 809 ;
810 [label="x[1503] <= 5.87\nsquared_error = 70.753\nsamples = 6\nvalue = 28.844"] ;
809 -> 810 ;
811 [label="x[1503] <= 5.037\nsquared_error = 48.995\nsamples = 4\nvalue = 24.9"] ;
810 -> 811 ;
812 [label="squared_error = 0.0\nsamples = 1\nvalue = 35.548"] ;
811 -> 812 ;
813 [label="x[874] <= 121.914\nsquared_error = 14.929\nsamples = 3\nvalue = 21.35"] ;
811 -> 813 ;
814 [label="squared_error = 0.0\nsamples = 1\nvalue = 16.105"] ;
813 -> 814 ;
815 [label="x[643] <= 122.25\nsquared_error = 1.755\nsamples = 2\nvalue = 23.973"] ;
813 -> 815 ;
816 [label="squared_error = 0.0\nsamples = 1\nvalue = 22.648"] ;
815 -> 816 ;
817 [label="squared_error = -0.0\nsamples = 1\nvalue = 25.298"] ;
815 -> 817 ;
818 [label="x[151] <= 122.065\nsquared_error = 20.928\nsamples = 2\nvalue = 36.733"] ;
810 -> 818 ;
819 [label="squared_error = 0.0\nsamples = 1\nvalue = 32.158"] ;
818 -> 819 ;
820 [label="squared_error = -0.0\nsamples = 1\nvalue = 41.307"] ;
818 -> 820 ;
821 [label="x[601] <= 122.584\nsquared_error = 1.314\nsamples = 2\nvalue = 9.909"] ;
809 -> 821 ;
822 [label="squared_error = 0.0\nsamples = 1\nvalue = 11.055"] ;
821 -> 822 ;
823 [label="squared_error = -0.0\nsamples = 1\nvalue = 8.762"] ;
821 -> 823 ;
824 [label="x[1503] <= 6.029\nsquared_error = 12.979\nsamples = 3\nvalue = 11.609"] ;
808 -> 824 ;
825 [label="squared_error = 0.0\nsamples = 1\nvalue = 16.703"] ;
824 -> 825 ;
826 [label="x[976] <= 121.882\nsquared_error = 0.002\nsamples = 2\nvalue = 9.061"] ;
824 -> 826 ;
827 [label="squared_error = 0.0\nsamples = 1\nvalue = 9.105"] ;
826 -> 827 ;
828 [label="squared_error = 0.0\nsamples = 1\nvalue = 9.017"] ;
826 -> 828 ;
829 [label="x[1277] <= 122.025\nsquared_error = 179.867\nsamples = 4\nvalue = 35.674"] ;
807 -> 829 ;
830 [label="squared_error = 0.0\nsamples = 1\nvalue = 53.738"] ;
829 -> 830 ;
831 [label="x[1503] <= 8.101\nsquared_error = 94.797\nsamples = 3\nvalue = 29.652"] ;
829 -> 831 ;
832 [label="x[14] <= 122.187\nsquared_error = 24.383\nsamples = 2\nvalue = 23.386"] ;
831 -> 832 ;
833 [label="squared_error = 0.0\nsamples = 1\nvalue = 28.324"] ;
832 -> 833 ;
834 [label="squared_error = -0.0\nsamples = 1\nvalue = 18.448"] ;
832 -> 834 ;
835 [label="squared_error = 0.0\nsamples = 1\nvalue = 42.186"] ;
831 -> 835 ;
836 [label="x[835] <= 123.248\nsquared_error = 302.287\nsamples = 69\nvalue = 33.69"] ;
754 -> 836 ;
837 [label="x[881] <= 122.717\nsquared_error = 87.226\nsamples = 11\nvalue = 48.458"] ;
836 -> 837 ;
838 [label="x[1390] <= 122.689\nsquared_error = 0.9\nsamples = 2\nvalue = 35.46"] ;
837 -> 838 ;
839 [label="squared_error = 0.0\nsamples = 1\nvalue = 34.511"] ;
838 -> 839 ;
840 [label="squared_error = -0.0\nsamples = 1\nvalue = 36.409"] ;
838 -> 840 ;
841 [label="x[1503] <= 8.173\nsquared_error = 60.518\nsamples = 9\nvalue = 51.347"] ;
837 -> 841 ;
842 [label="x[1503] <= 6.953\nsquared_error = 28.606\nsamples = 8\nvalue = 53.441"] ;
841 -> 842 ;
843 [label="x[1503] <= 6.679\nsquared_error = 10.003\nsamples = 5\nvalue = 56.026"] ;
842 -> 843 ;
844 [label="x[800] <= 122.854\nsquared_error = 6.905\nsamples = 3\nvalue = 54.064"] ;
843 -> 844 ;
845 [label="squared_error = 0.0\nsamples = 1\nvalue = 50.391"] ;
844 -> 845 ;
846 [label="x[635] <= 123.047\nsquared_error = 0.238\nsamples = 2\nvalue = 55.901"] ;
844 -> 846 ;
847 [label="squared_error = 0.0\nsamples = 1\nvalue = 56.389"] ;
846 -> 847 ;
848 [label="squared_error = 0.0\nsamples = 1\nvalue = 55.413"] ;
846 -> 848 ;
849 [label="x[266] <= 122.77\nsquared_error = 0.218\nsamples = 2\nvalue = 58.969"] ;
843 -> 849 ;
850 [label="squared_error = 0.0\nsamples = 1\nvalue = 59.436"] ;
849 -> 850 ;
851 [label="squared_error = 0.0\nsamples = 1\nvalue = 58.502"] ;
849 -> 851 ;
852 [label="x[369] <= 122.98\nsquared_error = 29.915\nsamples = 3\nvalue = 49.133"] ;
842 -> 852 ;
853 [label="squared_error = 0.0\nsamples = 1\nvalue = 41.755"] ;
852 -> 853 ;
854 [label="x[356] <= 123.133\nsquared_error = 4.039\nsamples = 2\nvalue = 52.823"] ;
852 -> 854 ;
855 [label="squared_error = 0.0\nsamples = 1\nvalue = 54.832"] ;
854 -> 855 ;
856 [label="squared_error = -0.0\nsamples = 1\nvalue = 50.813"] ;
854 -> 856 ;
857 [label="squared_error = -0.0\nsamples = 1\nvalue = 34.592"] ;
841 -> 857 ;
858 [label="x[1503] <= 7.897\nsquared_error = 293.861\nsamples = 58\nvalue = 30.889"] ;
836 -> 858 ;
859 [label="x[642] <= 123.743\nsquared_error = 276.82\nsamples = 54\nvalue = 32.497"] ;
858 -> 859 ;
860 [label="x[1503] <= 7.274\nsquared_error = 211.398\nsamples = 8\nvalue = 20.814"] ;
859 -> 860 ;
861 [label="x[760] <= 123.421\nsquared_error = 211.166\nsamples = 6\nvalue = 24.932"] ;
860 -> 861 ;
862 [label="x[1503] <= 6.443\nsquared_error = 308.115\nsamples = 3\nvalue = 31.971"] ;
861 -> 862 ;
863 [label="squared_error = 0.0\nsamples = 1\nvalue = 53.615"] ;
862 -> 863 ;
864 [label="x[924] <= 123.319\nsquared_error = 110.826\nsamples = 2\nvalue = 21.149"] ;
862 -> 864 ;
865 [label="squared_error = 0.0\nsamples = 1\nvalue = 10.622"] ;
864 -> 865 ;
866 [label="squared_error = -0.0\nsamples = 1\nvalue = 31.676"] ;
864 -> 866 ;
867 [label="x[1503] <= 5.848\nsquared_error = 15.124\nsamples = 3\nvalue = 17.893"] ;
861 -> 867 ;
868 [label="squared_error = 0.0\nsamples = 1\nvalue = 20.863"] ;
867 -> 868 ;
869 [label="x[149] <= 123.567\nsquared_error = 16.072\nsamples = 2\nvalue = 16.408"] ;
867 -> 869 ;
870 [label="squared_error = 0.0\nsamples = 1\nvalue = 20.417"] ;
869 -> 870 ;
871 [label="squared_error = -0.0\nsamples = 1\nvalue = 12.399"] ;
869 -> 871 ;
872 [label="x[1443] <= 123.406\nsquared_error = 8.599\nsamples = 2\nvalue = 8.46"] ;
860 -> 872 ;
873 [label="squared_error = 0.0\nsamples = 1\nvalue = 5.528"] ;
872 -> 873 ;
874 [label="squared_error = 0.0\nsamples = 1\nvalue = 11.393"] ;
872 -> 874 ;
875 [label="x[1503] <= 7.823\nsquared_error = 260.332\nsamples = 46\nvalue = 34.529"] ;
859 -> 875 ;
876 [label="x[1503] <= 7.134\nsquared_error = 253.662\nsamples = 45\nvalue = 34.009"] ;
875 -> 876 ;
877 [label="x[1503] <= 6.879\nsquared_error = 218.825\nsamples = 32\nvalue = 36.311"] ;
876 -> 877 ;
878 [label="x[1503] <= 6.807\nsquared_error = 217.341\nsamples = 27\nvalue = 34.509"] ;
877 -> 878 ;
879 [label="x[1062] <= 124.232\nsquared_error = 193.784\nsamples = 26\nvalue = 35.596"] ;
878 -> 879 ;
880 [label="x[1503] <= 6.504\nsquared_error = 89.55\nsamples = 4\nvalue = 22.838"] ;
879 -> 880 ;
881 [label="x[1503] <= 5.616\nsquared_error = 29.619\nsamples = 3\nvalue = 18.101"] ;
880 -> 881 ;
882 [label="squared_error = 0.0\nsamples = 1\nvalue = 25.331"] ;
881 -> 882 ;
883 [label="x[1041] <= 124.072\nsquared_error = 5.22\nsamples = 2\nvalue = 14.486"] ;
881 -> 883 ;
884 [label="squared_error = 0.0\nsamples = 1\nvalue = 16.77"] ;
883 -> 884 ;
885 [label="squared_error = -0.0\nsamples = 1\nvalue = 12.201"] ;
883 -> 885 ;
886 [label="squared_error = 0.0\nsamples = 1\nvalue = 37.051"] ;
880 -> 886 ;
887 [label="x[1078] <= 124.577\nsquared_error = 177.763\nsamples = 22\nvalue = 37.916"] ;
879 -> 887 ;
888 [label="x[746] <= 124.324\nsquared_error = 26.194\nsamples = 3\nvalue = 54.188"] ;
887 -> 888 ;
889 [label="squared_error = 0.0\nsamples = 1\nvalue = 58.149"] ;
888 -> 889 ;
890 [label="x[379] <= 124.491\nsquared_error = 27.523\nsamples = 2\nvalue = 52.207"] ;
888 -> 890 ;
891 [label="squared_error = 0.0\nsamples = 1\nvalue = 46.961"] ;
890 -> 891 ;
892 [label="squared_error = -0.0\nsamples = 1\nvalue = 57.454"] ;
890 -> 892 ;
893 [label="x[109] <= 125.013\nsquared_error = 153.285\nsamples = 19\nvalue = 35.346"] ;
887 -> 893 ;
894 [label="x[1391] <= 124.619\nsquared_error = 81.157\nsamples = 8\nvalue = 28.361"] ;
893 -> 894 ;
895 [label="x[1016] <= 124.603\nsquared_error = 11.266\nsamples = 2\nvalue = 37.536"] ;
894 -> 895 ;
896 [label="squared_error = 0.0\nsamples = 1\nvalue = 34.18"] ;
895 -> 896 ;
897 [label="squared_error = -0.0\nsamples = 1\nvalue = 40.893"] ;
895 -> 897 ;
898 [label="x[1503] <= 5.574\nsquared_error = 67.036\nsamples = 6\nvalue = 25.302"] ;
894 -> 898 ;
899 [label="x[1230] <= 124.767\nsquared_error = 59.346\nsamples = 3\nvalue = 30.64"] ;
898 -> 899 ;
900 [label="squared_error = 0.0\nsamples = 1\nvalue = 20.679"] ;
899 -> 900 ;
901 [label="x[1191] <= 124.903\nsquared_error = 14.608\nsamples = 2\nvalue = 35.62"] ;
899 -> 901 ;
902 [label="squared_error = 0.0\nsamples = 1\nvalue = 39.442"] ;
901 -> 902 ;
903 [label="squared_error = -0.0\nsamples = 1\nvalue = 31.798"] ;
901 -> 903 ;
904 [label="x[1503] <= 6.03\nsquared_error = 17.747\nsamples = 3\nvalue = 19.964"] ;
898 -> 904 ;
905 [label="x[149] <= 124.76\nsquared_error = 4.872\nsamples = 2\nvalue = 17.272"] ;
904 -> 905 ;
906 [label="squared_error = 0.0\nsamples = 1\nvalue = 15.065"] ;
905 -> 906 ;
907 [label="squared_error = 0.0\nsamples = 1\nvalue = 19.479"] ;
905 -> 907 ;
908 [label="squared_error = -0.0\nsamples = 1\nvalue = 25.349"] ;
904 -> 908 ;
909 [label="x[807] <= 125.52\nsquared_error = 144.439\nsamples = 11\nvalue = 40.427"] ;
893 -> 909 ;
910 [label="x[1503] <= 5.407\nsquared_error = 103.881\nsamples = 10\nvalue = 42.663"] ;
909 -> 910 ;
911 [label="x[1192] <= 125.399\nsquared_error = 117.35\nsamples = 5\nvalue = 38.692"] ;
910 -> 911 ;
912 [label="x[1140] <= 125.291\nsquared_error = 30.782\nsamples = 3\nvalue = 31.356"] ;
911 -> 912 ;
913 [label="x[201] <= 125.206\nsquared_error = 1.596\nsamples = 2\nvalue = 35.211"] ;
912 -> 913 ;
914 [label="squared_error = 0.0\nsamples = 1\nvalue = 33.948"] ;
913 -> 914 ;
915 [label="squared_error = 0.0\nsamples = 1\nvalue = 36.475"] ;
913 -> 915 ;
916 [label="squared_error = 0.0\nsamples = 1\nvalue = 23.647"] ;
912 -> 916 ;
917 [label="x[676] <= 125.476\nsquared_error = 45.394\nsamples = 2\nvalue = 49.696"] ;
911 -> 917 ;
918 [label="squared_error = 0.0\nsamples = 1\nvalue = 56.434"] ;
917 -> 918 ;
919 [label="squared_error = 0.0\nsamples = 1\nvalue = 42.959"] ;
917 -> 919 ;
920 [label="x[1503] <= 6.196\nsquared_error = 58.881\nsamples = 5\nvalue = 46.633"] ;
910 -> 920 ;
921 [label="x[1098] <= 125.139\nsquared_error = 7.645\nsamples = 2\nvalue = 55.104"] ;
920 -> 921 ;
922 [label="squared_error = 0.0\nsamples = 1\nvalue = 52.339"] ;
921 -> 922 ;
923 [label="squared_error = -0.0\nsamples = 1\nvalue = 57.868"] ;
921 -> 923 ;
924 [label="x[997] <= 125.19\nsquared_error = 13.325\nsamples = 3\nvalue = 40.987"] ;
920 -> 924 ;
925 [label="x[930] <= 125.095\nsquared_error = 1.788\nsamples = 2\nvalue = 38.524"] ;
924 -> 925 ;
926 [label="squared_error = 0.0\nsamples = 1\nvalue = 39.861"] ;
925 -> 926 ;
927 [label="squared_error = 0.0\nsamples = 1\nvalue = 37.186"] ;
925 -> 927 ;
928 [label="squared_error = 0.0\nsamples = 1\nvalue = 45.913"] ;
924 -> 928 ;
929 [label="squared_error = -0.0\nsamples = 1\nvalue = 18.066"] ;
909 -> 929 ;
930 [label="squared_error = 0.0\nsamples = 1\nvalue = 6.24"] ;
878 -> 930 ;
931 [label="x[946] <= 125.21\nsquared_error = 114.591\nsamples = 5\nvalue = 46.043"] ;
877 -> 931 ;
932 [label="x[240] <= 124.575\nsquared_error = 0.835\nsamples = 2\nvalue = 54.593"] ;
931 -> 932 ;
933 [label="squared_error = 0.0\nsamples = 1\nvalue = 55.507"] ;
932 -> 933 ;
934 [label="squared_error = -0.0\nsamples = 1\nvalue = 53.679"] ;
932 -> 934 ;
935 [label="x[1503] <= 6.962\nsquared_error = 109.204\nsamples = 3\nvalue = 40.343"] ;
931 -> 935 ;
936 [label="squared_error = 0.0\nsamples = 1\nvalue = 55.117"] ;
935 -> 936 ;
937 [label="x[1001] <= 125.387\nsquared_error = 0.097\nsamples = 2\nvalue = 32.956"] ;
935 -> 937 ;
938 [label="squared_error = 0.0\nsamples = 1\nvalue = 32.644"] ;
937 -> 938 ;
939 [label="squared_error = 0.0\nsamples = 1\nvalue = 33.267"] ;
937 -> 939 ;
940 [label="x[844] <= 124.051\nsquared_error = 294.251\nsamples = 13\nvalue = 28.341"] ;
876 -> 940 ;
941 [label="x[335] <= 123.847\nsquared_error = 280.227\nsamples = 6\nvalue = 37.456"] ;
940 -> 941 ;
942 [label="x[1503] <= 7.591\nsquared_error = 323.261\nsamples = 4\nvalue = 31.784"] ;
941 -> 942 ;
943 [label="x[1008] <= 123.806\nsquared_error = 168.515\nsamples = 3\nvalue = 39.885"] ;
942 -> 943 ;
944 [label="x[952] <= 123.772\nsquared_error = 0.678\nsamples = 2\nvalue = 49.051"] ;
943 -> 944 ;
945 [label="squared_error = 0.0\nsamples = 1\nvalue = 49.875"] ;
944 -> 945 ;
946 [label="squared_error = 0.0\nsamples = 1\nvalue = 48.228"] ;
944 -> 946 ;
947 [label="squared_error = 0.0\nsamples = 1\nvalue = 21.551"] ;
943 -> 947 ;
948 [label="squared_error = 0.0\nsamples = 1\nvalue = 7.481"] ;
942 -> 948 ;
949 [label="x[677] <= 123.945\nsquared_error = 1.11\nsamples = 2\nvalue = 48.8"] ;
941 -> 949 ;
950 [label="squared_error = 0.0\nsamples = 1\nvalue = 49.854"] ;
949 -> 950 ;
951 [label="squared_error = 0.0\nsamples = 1\nvalue = 47.747"] ;
949 -> 951 ;
952 [label="x[1503] <= 7.665\nsquared_error = 174.032\nsamples = 7\nvalue = 20.529"] ;
940 -> 952 ;
953 [label="x[268] <= 125.336\nsquared_error = 157.162\nsamples = 4\nvalue = 13.086"] ;
952 -> 953 ;
954 [label="x[1140] <= 124.829\nsquared_error = 19.54\nsamples = 3\nvalue = 6.194"] ;
953 -> 954 ;
955 [label="squared_error = 0.0\nsamples = 1\nvalue = 12.393"] ;
954 -> 955 ;
956 [label="x[1055] <= 125.095\nsquared_error = 0.486\nsamples = 2\nvalue = 3.094"] ;
954 -> 956 ;
957 [label="squared_error = 0.0\nsamples = 1\nvalue = 3.791"] ;
956 -> 957 ;
958 [label="squared_error = 0.0\nsamples = 1\nvalue = 2.397"] ;
956 -> 958 ;
959 [label="squared_error = 0.0\nsamples = 1\nvalue = 33.762"] ;
953 -> 959 ;
960 [label="x[1503] <= 7.774\nsquared_error = 24.159\nsamples = 3\nvalue = 30.454"] ;
952 -> 960 ;
961 [label="squared_error = 0.0\nsamples = 1\nvalue = 37.17"] ;
960 -> 961 ;
962 [label="x[483] <= 124.742\nsquared_error = 2.409\nsamples = 2\nvalue = 27.095"] ;
960 -> 962 ;
963 [label="squared_error = 0.0\nsamples = 1\nvalue = 25.543"] ;
962 -> 963 ;
964 [label="squared_error = 0.0\nsamples = 1\nvalue = 28.648"] ;
962 -> 964 ;
965 [label="squared_error = -0.0\nsamples = 1\nvalue = 57.944"] ;
875 -> 965 ;
966 [label="x[1503] <= 8.205\nsquared_error = 17.346\nsamples = 4\nvalue = 9.171"] ;
858 -> 966 ;
967 [label="x[1095] <= 123.691\nsquared_error = 6.862\nsamples = 3\nvalue = 11.188"] ;
966 -> 967 ;
968 [label="squared_error = 0.0\nsamples = 1\nvalue = 7.556"] ;
967 -> 968 ;
969 [label="x[98] <= 124.6\nsquared_error = 0.402\nsamples = 2\nvalue = 13.004"] ;
967 -> 969 ;
970 [label="squared_error = 0.0\nsamples = 1\nvalue = 12.369"] ;
969 -> 970 ;
971 [label="squared_error = -0.0\nsamples = 1\nvalue = 13.638"] ;
969 -> 971 ;
972 [label="squared_error = 0.0\nsamples = 1\nvalue = 3.122"] ;
966 -> 972 ;
973 [label="x[493] <= 123.145\nsquared_error = 0.334\nsamples = 2\nvalue = 58.289"] ;
293 -> 973 ;
974 [label="squared_error = 0.0\nsamples = 1\nvalue = 58.867"] ;
973 -> 974 ;
975 [label="squared_error = -0.0\nsamples = 1\nvalue = 57.711"] ;
973 -> 975 ;
976 [label="x[1318] <= 120.751\nsquared_error = 4.275\nsamples = 2\nvalue = 11.86"] ;
292 -> 976 ;
977 [label="squared_error = 0.0\nsamples = 1\nvalue = 13.928"] ;
976 -> 977 ;
978 [label="squared_error = 0.0\nsamples = 1\nvalue = 9.793"] ;
976 -> 978 ;
979 [label="x[1029] <= 125.262\nsquared_error = 118.475\nsamples = 10\nvalue = 45.496"] ;
291 -> 979 ;
980 [label="x[1503] <= 8.599\nsquared_error = 75.562\nsamples = 9\nvalue = 47.864"] ;
979 -> 980 ;
981 [label="x[254] <= 122.477\nsquared_error = 90.898\nsamples = 5\nvalue = 51.837"] ;
980 -> 981 ;
982 [label="x[199] <= 122.078\nsquared_error = 91.896\nsamples = 3\nvalue = 46.962"] ;
981 -> 982 ;
983 [label="x[181] <= 121.245\nsquared_error = 6.663\nsamples = 2\nvalue = 53.574"] ;
982 -> 983 ;
984 [label="squared_error = 0.0\nsamples = 1\nvalue = 56.156"] ;
983 -> 984 ;
985 [label="squared_error = 0.0\nsamples = 1\nvalue = 50.993"] ;
983 -> 985 ;
986 [label="squared_error = -0.0\nsamples = 1\nvalue = 33.736"] ;
982 -> 986 ;
987 [label="x[503] <= 123.333\nsquared_error = 0.274\nsamples = 2\nvalue = 59.15"] ;
981 -> 987 ;
988 [label="squared_error = 0.0\nsamples = 1\nvalue = 59.673"] ;
987 -> 988 ;
989 [label="squared_error = 0.0\nsamples = 1\nvalue = 58.626"] ;
987 -> 989 ;
990 [label="x[248] <= 124.23\nsquared_error = 11.995\nsamples = 4\nvalue = 42.897"] ;
980 -> 990 ;
991 [label="x[1230] <= 122.745\nsquared_error = 1.456\nsamples = 2\nvalue = 40.593"] ;
990 -> 991 ;
992 [label="squared_error = 0.0\nsamples = 1\nvalue = 39.387"] ;
991 -> 992 ;
993 [label="squared_error = -0.0\nsamples = 1\nvalue = 41.8"] ;
991 -> 993 ;
994 [label="x[626] <= 124.759\nsquared_error = 11.916\nsamples = 2\nvalue = 45.202"] ;
990 -> 994 ;
995 [label="squared_error = 0.0\nsamples = 1\nvalue = 48.654"] ;
994 -> 995 ;
996 [label="squared_error = 0.0\nsamples = 1\nvalue = 41.75"] ;
994 -> 996 ;
997 [label="squared_error = 0.0\nsamples = 1\nvalue = 24.183"] ;
979 -> 997 ;
998 [label="x[595] <= 120.262\nsquared_error = 281.926\nsamples = 466\nvalue = 31.503"] ;
268 -> 998 ;
999 [label="x[1503] <= 13.915\nsquared_error = 254.275\nsamples = 18\nvalue = 22.395"] ;
998 -> 999 ;
1000 [label="x[1008] <= 120.086\nsquared_error = 176.632\nsamples = 8\nvalue = 13.216"] ;
999 -> 1000 ;
1001 [label="x[461] <= 120.041\nsquared_error = 462.164\nsamples = 2\nvalue = 25.683"] ;
1000 -> 1001 ;
1002 [label="squared_error = 0.0\nsamples = 1\nvalue = 4.185"] ;
1001 -> 1002 ;
1003 [label="squared_error = 0.0\nsamples = 1\nvalue = 47.181"] ;
1001 -> 1003 ;
1004 [label="x[1503] <= 9.965\nsquared_error = 12.373\nsamples = 6\nvalue = 9.06"] ;
1000 -> 1004 ;
1005 [label="x[582] <= 120.16\nsquared_error = 0.163\nsamples = 2\nvalue = 12.67"] ;
1004 -> 1005 ;
1006 [label="squared_error = 0.0\nsamples = 1\nvalue = 12.266"] ;
1005 -> 1006 ;
1007 [label="squared_error = -0.0\nsamples = 1\nvalue = 13.075"] ;
1005 -> 1007 ;
1008 [label="x[67] <= 120.226\nsquared_error = 8.704\nsamples = 4\nvalue = 7.255"] ;
1004 -> 1008 ;
1009 [label="x[980] <= 120.163\nsquared_error = 0.036\nsamples = 3\nvalue = 5.555"] ;
1008 -> 1009 ;
1010 [label="squared_error = 0.0\nsamples = 1\nvalue = 5.82"] ;
1009 -> 1010 ;
1011 [label="x[953] <= 120.185\nsquared_error = 0.001\nsamples = 2\nvalue = 5.422"] ;
1009 -> 1011 ;
1012 [label="squared_error = 0.0\nsamples = 1\nvalue = 5.39"] ;
1011 -> 1012 ;
1013 [label="squared_error = 0.0\nsamples = 1\nvalue = 5.454"] ;
1011 -> 1013 ;
1014 [label="squared_error = 0.0\nsamples = 1\nvalue = 12.357"] ;
1008 -> 1014 ;
1015 [label="x[1503] <= 17.472\nsquared_error = 195.056\nsamples = 10\nvalue = 29.739"] ;
999 -> 1015 ;
1016 [label="x[1170] <= 120.017\nsquared_error = 51.553\nsamples = 3\nvalue = 43.737"] ;
1015 -> 1016 ;
1017 [label="squared_error = 0.0\nsamples = 1\nvalue = 53.865"] ;
1016 -> 1017 ;
1018 [label="x[670] <= 120.11\nsquared_error = 0.397\nsamples = 2\nvalue = 38.673"] ;
1016 -> 1018 ;
1019 [label="squared_error = 0.0\nsamples = 1\nvalue = 39.303"] ;
1018 -> 1019 ;
1020 [label="squared_error = 0.0\nsamples = 1\nvalue = 38.042"] ;
1018 -> 1020 ;
1021 [label="x[1503] <= 18.399\nsquared_error = 136.596\nsamples = 7\nvalue = 23.74"] ;
1015 -> 1021 ;
1022 [label="x[563] <= 120.135\nsquared_error = 9.496\nsamples = 2\nvalue = 11.201"] ;
1021 -> 1022 ;
1023 [label="squared_error = 0.0\nsamples = 1\nvalue = 14.283"] ;
1022 -> 1023 ;
1024 [label="squared_error = 0.0\nsamples = 1\nvalue = 8.12"] ;
1022 -> 1024 ;
1025 [label="x[1481] <= 120.066\nsquared_error = 99.399\nsamples = 5\nvalue = 28.755"] ;
1021 -> 1025 ;
1026 [label="squared_error = 0.0\nsamples = 1\nvalue = 12.579"] ;
1025 -> 1026 ;
1027 [label="x[175] <= 120.219\nsquared_error = 42.479\nsamples = 4\nvalue = 32.799"] ;
1025 -> 1027 ;
1028 [label="x[1241] <= 120.152\nsquared_error = 36.498\nsamples = 3\nvalue = 35.043"] ;
1027 -> 1028 ;
1029 [label="x[568] <= 120.081\nsquared_error = 0.203\nsamples = 2\nvalue = 30.779"] ;
1028 -> 1029 ;
1030 [label="squared_error = 0.0\nsamples = 1\nvalue = 31.23"] ;
1029 -> 1030 ;
1031 [label="squared_error = 0.0\nsamples = 1\nvalue = 30.328"] ;
1029 -> 1031 ;
1032 [label="squared_error = 0.0\nsamples = 1\nvalue = 43.571"] ;
1028 -> 1032 ;
1033 [label="squared_error = 0.0\nsamples = 1\nvalue = 26.067"] ;
1027 -> 1033 ;
1034 [label="x[1503] <= 19.49\nsquared_error = 279.57\nsamples = 448\nvalue = 31.869"] ;
998 -> 1034 ;
1035 [label="x[1077] <= 123.988\nsquared_error = 287.816\nsamples = 326\nvalue = 30.871"] ;
1034 -> 1035 ;
1036 [label="x[1503] <= 11.636\nsquared_error = 286.522\nsamples = 232\nvalue = 29.389"] ;
1035 -> 1036 ;
1037 [label="x[1152] <= 122.498\nsquared_error = 309.909\nsamples = 76\nvalue = 32.51"] ;
1036 -> 1037 ;
1038 [label="x[1503] <= 9.019\nsquared_error = 308.168\nsamples = 47\nvalue = 29.316"] ;
1037 -> 1038 ;
1039 [label="x[1237] <= 121.702\nsquared_error = 1.384\nsamples = 3\nvalue = 7.379"] ;
1038 -> 1039 ;
1040 [label="squared_error = 0.0\nsamples = 1\nvalue = 5.716"] ;
1039 -> 1040 ;
1041 [label="x[1171] <= 122.015\nsquared_error = 0.001\nsamples = 2\nvalue = 8.21"] ;
1039 -> 1041 ;
1042 [label="squared_error = 0.0\nsamples = 1\nvalue = 8.24"] ;
1041 -> 1042 ;
1043 [label="squared_error = 0.0\nsamples = 1\nvalue = 8.181"] ;
1041 -> 1043 ;
1044 [label="x[1278] <= 120.461\nsquared_error = 294.037\nsamples = 44\nvalue = 30.811"] ;
1038 -> 1044 ;
1045 [label="x[1503] <= 10.933\nsquared_error = 9.69\nsamples = 3\nvalue = 14.074"] ;
1044 -> 1045 ;
1046 [label="x[967] <= 120.347\nsquared_error = 2.06\nsamples = 2\nvalue = 12.035"] ;
1045 -> 1046 ;
1047 [label="squared_error = 0.0\nsamples = 1\nvalue = 10.599"] ;
1046 -> 1047 ;
1048 [label="squared_error = 0.0\nsamples = 1\nvalue = 13.47"] ;
1046 -> 1048 ;
1049 [label="squared_error = 0.0\nsamples = 1\nvalue = 18.152"] ;
1045 -> 1049 ;
1050 [label="x[712] <= 121.726\nsquared_error = 292.844\nsamples = 41\nvalue = 32.036"] ;
1044 -> 1050 ;
1051 [label="x[1503] <= 9.94\nsquared_error = 287.814\nsamples = 28\nvalue = 35.14"] ;
1050 -> 1051 ;
1052 [label="x[198] <= 120.962\nsquared_error = 225.977\nsamples = 8\nvalue = 43.556"] ;
1051 -> 1052 ;
1053 [label="squared_error = 0.0\nsamples = 1\nvalue = 14.262"] ;
1052 -> 1053 ;
1054 [label="x[1503] <= 9.415\nsquared_error = 118.156\nsamples = 7\nvalue = 47.741"] ;
1052 -> 1054 ;
1055 [label="x[1503] <= 9.096\nsquared_error = 130.479\nsamples = 3\nvalue = 39.034"] ;
1054 -> 1055 ;
1056 [label="squared_error = 0.0\nsamples = 1\nvalue = 53.956"] ;
1055 -> 1056 ;
1057 [label="x[488] <= 121.341\nsquared_error = 28.711\nsamples = 2\nvalue = 31.573"] ;
1055 -> 1057 ;
1058 [label="squared_error = 0.0\nsamples = 1\nvalue = 26.214"] ;
1057 -> 1058 ;
1059 [label="squared_error = 0.0\nsamples = 1\nvalue = 36.931"] ;
1057 -> 1059 ;
1060 [label="x[1012] <= 120.972\nsquared_error = 9.406\nsamples = 4\nvalue = 54.271"] ;
1054 -> 1060 ;
1061 [label="squared_error = 0.0\nsamples = 1\nvalue = 58.749"] ;
1060 -> 1061 ;
1062 [label="x[455] <= 120.984\nsquared_error = 3.63\nsamples = 3\nvalue = 52.779"] ;
1060 -> 1062 ;
1063 [label="squared_error = 0.0\nsamples = 1\nvalue = 50.313"] ;
1062 -> 1063 ;
1064 [label="x[1213] <= 121.198\nsquared_error = 0.885\nsamples = 2\nvalue = 54.012"] ;
1062 -> 1064 ;
1065 [label="squared_error = 0.0\nsamples = 1\nvalue = 53.071"] ;
1064 -> 1065 ;
1066 [label="squared_error = -0.0\nsamples = 1\nvalue = 54.953"] ;
1064 -> 1066 ;
1067 [label="x[1503] <= 10.445\nsquared_error = 272.88\nsamples = 20\nvalue = 31.773"] ;
1051 -> 1067 ;
1068 [label="x[1503] <= 10.147\nsquared_error = 197.672\nsamples = 8\nvalue = 23.075"] ;
1067 -> 1068 ;
1069 [label="x[140] <= 120.863\nsquared_error = 189.559\nsamples = 4\nvalue = 32.523"] ;
1068 -> 1069 ;
1070 [label="squared_error = 0.0\nsamples = 1\nvalue = 10.733"] ;
1069 -> 1070 ;
1071 [label="x[1503] <= 10.129\nsquared_error = 41.728\nsamples = 3\nvalue = 39.786"] ;
1069 -> 1071 ;
1072 [label="x[1422] <= 121.132\nsquared_error = 4.718\nsamples = 2\nvalue = 44.178"] ;
1071 -> 1072 ;
1073 [label="squared_error = 0.0\nsamples = 1\nvalue = 46.35"] ;
1072 -> 1073 ;
1074 [label="squared_error = -0.0\nsamples = 1\nvalue = 42.006"] ;
1072 -> 1074 ;
1075 [label="squared_error = 0.0\nsamples = 1\nvalue = 31.002"] ;
1071 -> 1075 ;
1076 [label="x[1503] <= 10.36\nsquared_error = 27.25\nsamples = 4\nvalue = 13.627"] ;
1068 -> 1076 ;
1077 [label="x[80] <= 121.11\nsquared_error = 6.157\nsamples = 3\nvalue = 16.373"] ;
1076 -> 1077 ;
1078 [label="x[740] <= 120.549\nsquared_error = 0.16\nsamples = 2\nvalue = 14.634"] ;
1077 -> 1078 ;
1079 [label="squared_error = 0.0\nsamples = 1\nvalue = 14.234"] ;
1078 -> 1079 ;
1080 [label="squared_error = 0.0\nsamples = 1\nvalue = 15.034"] ;
1078 -> 1080 ;
1081 [label="squared_error = 0.0\nsamples = 1\nvalue = 19.852"] ;
1077 -> 1081 ;
1082 [label="squared_error = 0.0\nsamples = 1\nvalue = 5.387"] ;
1076 -> 1082 ;
1083 [label="x[1420] <= 120.823\nsquared_error = 238.951\nsamples = 12\nvalue = 37.572"] ;
1067 -> 1083 ;
1084 [label="x[1503] <= 10.467\nsquared_error = 20.173\nsamples = 5\nvalue = 48.224"] ;
1083 -> 1084 ;
1085 [label="squared_error = 0.0\nsamples = 1\nvalue = 56.225"] ;
1084 -> 1085 ;
1086 [label="x[570] <= 120.676\nsquared_error = 5.21\nsamples = 4\nvalue = 46.224"] ;
1084 -> 1086 ;
1087 [label="x[722] <= 120.576\nsquared_error = 1.491\nsamples = 2\nvalue = 48.326"] ;
1086 -> 1087 ;
1088 [label="squared_error = 0.0\nsamples = 1\nvalue = 47.104"] ;
1087 -> 1088 ;
1089 [label="squared_error = 0.0\nsamples = 1\nvalue = 49.547"] ;
1087 -> 1089 ;
1090 [label="x[320] <= 120.749\nsquared_error = 0.092\nsamples = 2\nvalue = 44.122"] ;
1086 -> 1090 ;
1091 [label="squared_error = 0.0\nsamples = 1\nvalue = 43.819"] ;
1090 -> 1091 ;
1092 [label="squared_error = 0.0\nsamples = 1\nvalue = 44.424"] ;
1090 -> 1092 ;
1093 [label="x[417] <= 121.643\nsquared_error = 256.286\nsamples = 7\nvalue = 29.964"] ;
1083 -> 1093 ;
1094 [label="x[1503] <= 10.675\nsquared_error = 144.748\nsamples = 6\nvalue = 25.269"] ;
1093 -> 1094 ;
1095 [label="squared_error = 0.0\nsamples = 1\nvalue = 48.622"] ;
1094 -> 1095 ;
1096 [label="x[1503] <= 11.118\nsquared_error = 42.811\nsamples = 5\nvalue = 20.599"] ;
1094 -> 1096 ;
1097 [label="x[214] <= 121.22\nsquared_error = 23.386\nsamples = 2\nvalue = 14.189"] ;
1096 -> 1097 ;
1098 [label="squared_error = 0.0\nsamples = 1\nvalue = 9.353"] ;
1097 -> 1098 ;
1099 [label="squared_error = 0.0\nsamples = 1\nvalue = 19.025"] ;
1097 -> 1099 ;
1100 [label="x[1503] <= 11.461\nsquared_error = 10.109\nsamples = 3\nvalue = 24.872"] ;
1096 -> 1100 ;
1101 [label="x[1197] <= 121.243\nsquared_error = 0.24\nsamples = 2\nvalue = 27.102"] ;
1100 -> 1101 ;
1102 [label="squared_error = 0.0\nsamples = 1\nvalue = 27.592"] ;
1101 -> 1102 ;
1103 [label="squared_error = 0.0\nsamples = 1\nvalue = 26.613"] ;
1101 -> 1103 ;
1104 [label="squared_error = -0.0\nsamples = 1\nvalue = 20.411"] ;
1100 -> 1104 ;
1105 [label="squared_error = 0.0\nsamples = 1\nvalue = 58.129"] ;
1093 -> 1105 ;
1106 [label="x[1503] <= 10.95\nsquared_error = 238.244\nsamples = 13\nvalue = 25.351"] ;
1050 -> 1106 ;
1107 [label="x[1284] <= 122.287\nsquared_error = 77.708\nsamples = 8\nvalue = 16.414"] ;
1106 -> 1107 ;
1108 [label="x[612] <= 121.969\nsquared_error = 32.871\nsamples = 6\nvalue = 13.581"] ;
1107 -> 1108 ;
1109 [label="x[1204] <= 121.853\nsquared_error = 27.786\nsamples = 2\nvalue = 8.263"] ;
1108 -> 1109 ;
1110 [label="squared_error = 0.0\nsamples = 1\nvalue = 13.534"] ;
1109 -> 1110 ;
1111 [label="squared_error = 0.0\nsamples = 1\nvalue = 2.992"] ;
1109 -> 1111 ;
1112 [label="x[551] <= 122.116\nsquared_error = 14.2\nsamples = 4\nvalue = 16.241"] ;
1108 -> 1112 ;
1113 [label="x[234] <= 121.978\nsquared_error = 0.003\nsamples = 2\nvalue = 19.723"] ;
1112 -> 1113 ;
1114 [label="squared_error = 0.0\nsamples = 1\nvalue = 19.773"] ;
1113 -> 1114 ;
1115 [label="squared_error = -0.0\nsamples = 1\nvalue = 19.672"] ;
1113 -> 1115 ;
1116 [label="x[1158] <= 122.261\nsquared_error = 4.145\nsamples = 2\nvalue = 12.758"] ;
1112 -> 1116 ;
1117 [label="squared_error = 0.0\nsamples = 1\nvalue = 14.794"] ;
1116 -> 1117 ;
1118 [label="squared_error = 0.0\nsamples = 1\nvalue = 10.722"] ;
1116 -> 1118 ;
1119 [label="x[1314] <= 122.393\nsquared_error = 115.944\nsamples = 2\nvalue = 24.911"] ;
1107 -> 1119 ;
1120 [label="squared_error = 0.0\nsamples = 1\nvalue = 35.679"] ;
1119 -> 1120 ;
